~o
<STREAMINFO> 1 39
<VECSIZE> 39<NULLD><MFCC_E_D_A_Z><DIAGC>
~s "silst"
<NUMMIXES> 12
<MIXTURE> 1 2.516065e-02
<MEAN> 39
 -3.288459e+00 -2.225173e+00 1.602128e+00 2.465075e+00 4.688317e+00 4.851145e+00 4.600327e+00 4.627127e+00 3.396125e+00 3.066926e+00 2.831126e+00 3.081981e-01 1.935409e-02 -1.162794e+00 -5.558906e-01 -2.368574e-01 5.102456e-01 8.849829e-01 1.648794e+00 2.045896e+00 2.365657e+00 1.819679e+00 1.309069e+00 8.020927e-01 1.906593e-01 -3.987933e-02 9.522569e-01 6.313502e-01 2.945528e-01 3.149710e-01 -1.021819e-01 -2.654651e-01 -3.447399e-01 -3.296371e-01 -3.986824e-01 -3.086848e-01 -1.468096e-01 1.048559e-01 7.069723e-02
<VARIANCE> 39
 1.158565e+01 3.882272e+01 1.524628e+01 2.558764e+01 2.744111e+01 3.266686e+01 3.089584e+01 4.089036e+01 2.450985e+01 2.643866e+01 2.775113e+01 2.081898e+01 1.510613e-02 2.178497e+00 2.954139e+00 2.097574e+00 2.517513e+00 2.066372e+00 2.459971e+00 3.091066e+00 3.021841e+00 2.268323e+00 2.211463e+00 1.786212e+00 2.112745e+00 1.100758e-02 3.708234e-01 5.546333e-01 3.158979e-01 4.370239e-01 5.588393e-01 6.461374e-01 6.169620e-01 7.429081e-01 5.081026e-01 7.772953e-01 3.950790e-01 4.153314e-01 1.150365e-03
<GCONST> 9.728617e+01
<MIXTURE> 2 5.101453e-02
<MEAN> 39
 -8.411100e-01 -1.450755e+00 6.902112e+00 7.559251e+00 8.583958e+00 8.550492e+00 7.197362e+00 6.867229e+00 4.662594e+00 4.189250e+00 1.781243e+00 1.315638e+00 1.991695e-01 1.075697e-01 4.904282e-01 -1.297711e-02 -2.132415e-01 -2.366188e-01 9.406193e-02 -1.582738e-01 2.678216e-01 6.178839e-01 6.298236e-01 2.863939e-01 -2.369433e-02 4.394514e-02 8.865783e-02 8.459435e-02 -5.244128e-01 -5.400804e-01 -6.698366e-01 -5.811832e-01 -4.812819e-01 -4.048329e-01 -3.027645e-01 -9.664425e-02 4.898388e-02 5.922294e-02 1.623583e-02
<VARIANCE> 39
 2.809226e+01 5.874585e+01 5.743690e+01 5.537792e+01 5.454689e+01 5.589450e+01 4.939969e+01 5.465981e+01 4.496618e+01 4.516207e+01 5.077525e+01 4.631577e+01 3.814546e-02 2.151452e+00 3.447469e+00 3.867339e+00 3.717930e+00 3.915187e+00 3.990517e+00 3.902872e+00 3.922807e+00 3.375806e+00 3.595603e+00 3.458589e+00 2.476376e+00 6.564340e-03 8.916491e-01 9.143353e-01 8.280627e-01 9.054011e-01 1.071776e+00 1.070828e+00 1.137402e+00 9.728391e-01 9.821658e-01 8.088214e-01 1.097434e+00 8.610207e-01 1.945243e-03
<GCONST> 1.181693e+02
<MIXTURE> 3 1.051581e-01
<MEAN> 39
 -2.638380e+00 -1.657982e+00 2.900218e+00 4.028449e+00 4.993861e+00 5.717465e+00 3.921915e+00 5.434170e+00 4.068644e+00 3.276069e+00 2.877124e+00 1.655005e+00 4.956092e-02 -6.550886e-01 1.336561e-01 9.291500e-02 4.192431e-01 2.428283e-01 4.680493e-01 3.448188e-01 4.125008e-01 2.786265e-01 1.569843e-01 1.055499e-01 6.593820e-03 -1.125203e-02 2.362169e-01 2.291238e-01 2.267576e-02 2.877461e-02 -1.450329e-01 -2.203780e-01 -1.987095e-01 -2.673488e-01 -2.139773e-01 -1.204321e-01 -7.778824e-02 4.591323e-03 2.542319e-02
<VARIANCE> 39
 1.549984e+01 4.907809e+01 2.652584e+01 2.830188e+01 2.792299e+01 2.842595e+01 3.082289e+01 3.485140e+01 3.114136e+01 2.768701e+01 2.858239e+01 2.204301e+01 2.199673e-02 1.356423e+00 1.683553e+00 1.545037e+00 1.762127e+00 1.827665e+00 1.947336e+00 2.290653e+00 2.747672e+00 2.556739e+00 2.221917e+00 2.195741e+00 2.192266e+00 3.622512e-03 3.096144e-01 4.547665e-01 3.047667e-01 3.384894e-01 4.228864e-01 4.124738e-01 5.022132e-01 5.459582e-01 5.595551e-01 5.273908e-01 4.550697e-01 4.153105e-01 9.513384e-04
<GCONST> 9.348528e+01
<MIXTURE> 4 7.735520e-02
<MEAN> 39
 -1.593469e+00 -4.809498e-01 3.594109e+00 4.222996e+00 4.231217e+00 3.301913e+00 2.615056e+00 1.482494e+00 2.701730e+00 2.125741e+00 1.532030e+00 1.800870e+00 2.445126e-01 2.187399e+00 1.680888e+00 -1.343245e-01 -9.209933e-01 -1.197686e+00 -1.368763e+00 -1.295613e+00 -1.307387e+00 -1.067174e+00 -3.811001e-01 -5.261450e-01 -2.053837e-01 1.659180e-01 2.501228e-01 -9.776848e-03 -3.852336e-01 -5.108349e-01 -3.906665e-01 -2.145284e-01 -2.342992e-01 -2.777590e-02 -1.835553e-01 -8.649229e-02 -2.181289e-02 5.751777e-03 1.930537e-02
<VARIANCE> 39
 2.905182e+01 4.934580e+01 3.770032e+01 3.180045e+01 3.119508e+01 4.050749e+01 3.603974e+01 4.570877e+01 3.664395e+01 4.439007e+01 4.082079e+01 2.913067e+01 5.096514e-02 2.695182e+00 4.837882e+00 4.825552e+00 3.793617e+00 3.423539e+00 4.065862e+00 4.563130e+00 4.032951e+00 3.869879e+00 3.791046e+00 3.968132e+00 3.197674e+00 4.585173e-03 4.774639e-01 5.181802e-01 4.846117e-01 5.141296e-01 4.564033e-01 6.190001e-01 5.871608e-01 6.630515e-01 7.410168e-01 7.398462e-01 6.551208e-01 5.282171e-01 1.002451e-03
<GCONST> 1.093829e+02
<MIXTURE> 5 1.051583e-01
<MEAN> 39
 -2.638382e+00 -1.657988e+00 2.900214e+00 4.028444e+00 4.993859e+00 5.717463e+00 3.921912e+00 5.434169e+00 4.068647e+00 3.276069e+00 2.877124e+00 1.655003e+00 4.956107e-02 -6.550896e-01 1.336555e-01 9.291472e-02 4.192439e-01 2.428288e-01 4.680495e-01 3.448191e-01 4.125009e-01 2.786267e-01 1.569847e-01 1.055498e-01 6.593382e-03 -1.125207e-02 2.362177e-01 2.291245e-01 2.267601e-02 2.877478e-02 -1.450329e-01 -2.203782e-01 -1.987095e-01 -2.673495e-01 -2.139779e-01 -1.204324e-01 -7.778876e-02 4.591441e-03 2.542324e-02
<VARIANCE> 39
 1.549983e+01 4.907812e+01 2.652586e+01 2.830192e+01 2.792302e+01 2.842597e+01 3.082294e+01 3.485142e+01 3.114137e+01 2.768707e+01 2.858244e+01 2.204305e+01 2.199674e-02 1.356426e+00 1.683556e+00 1.545040e+00 1.762130e+00 1.827666e+00 1.947338e+00 2.290655e+00 2.747676e+00 2.556744e+00 2.221919e+00 2.195743e+00 2.192269e+00 3.622519e-03 3.096142e-01 4.547674e-01 3.047673e-01 3.384899e-01 4.228870e-01 4.124744e-01 5.022144e-01 5.459586e-01 5.595557e-01 5.273920e-01 4.550707e-01 4.153112e-01 9.513397e-04
<GCONST> 9.348531e+01
<MIXTURE> 6 1.178424e-01
<MEAN> 39
 -2.399835e+00 -1.824686e+00 9.700314e-01 1.564480e+00 1.783221e+00 2.518828e+00 6.276963e-01 1.531540e+00 3.302401e+00 8.135083e-01 1.429853e+00 9.889956e-01 2.922821e-02 -5.227309e-01 -2.141549e-01 -2.852415e-01 -9.990065e-02 -2.221196e-01 -1.383648e-01 -1.265736e-01 3.307671e-02 -4.418480e-02 3.444963e-02 3.757876e-02 -4.491264e-02 -2.349579e-02 1.648923e-01 2.260157e-01 1.759607e-01 1.924503e-01 1.562443e-01 1.146325e-01 6.723197e-02 4.751449e-02 -1.086258e-02 -3.152528e-03 -4.573030e-02 -2.897308e-02 1.737723e-02
<VARIANCE> 39
 1.335773e+01 4.313763e+01 1.968646e+01 2.476371e+01 2.577514e+01 2.550906e+01 2.833673e+01 3.415049e+01 2.593960e+01 2.887490e+01 2.644503e+01 2.047418e+01 2.033434e-02 1.036215e+00 1.388026e+00 1.235926e+00 1.401818e+00 1.592406e+00 1.629324e+00 1.874746e+00 2.021318e+00 2.199114e+00 2.066034e+00 1.914037e+00 1.558183e+00 3.020194e-03 1.451841e-01 2.540065e-01 2.210713e-01 2.621401e-01 3.107739e-01 3.553160e-01 3.728890e-01 4.135339e-01 4.345806e-01 4.106957e-01 3.812682e-01 3.433887e-01 4.360196e-04
<GCONST> 8.489115e+01
<MIXTURE> 7 7.735503e-02
<MEAN> 39
 -1.593470e+00 -4.809518e-01 3.594108e+00 4.222995e+00 4.231217e+00 3.301914e+00 2.615057e+00 1.482496e+00 2.701732e+00 2.125744e+00 1.532032e+00 1.800873e+00 2.445126e-01 2.187398e+00 1.680887e+00 -1.343242e-01 -9.209930e-01 -1.197685e+00 -1.368763e+00 -1.295612e+00 -1.307387e+00 -1.067174e+00 -3.811001e-01 -5.261450e-01 -2.053832e-01 1.659180e-01 2.501229e-01 -9.776828e-03 -3.852334e-01 -5.108349e-01 -3.906665e-01 -2.145286e-01 -2.342993e-01 -2.777611e-02 -1.835558e-01 -8.649275e-02 -2.181332e-02 5.751534e-03 1.930538e-02
<VARIANCE> 39
 2.905178e+01 4.934576e+01 3.770029e+01 3.180044e+01 3.119505e+01 4.050745e+01 3.603972e+01 4.570875e+01 3.664388e+01 4.439006e+01 4.082076e+01 2.913065e+01 5.096510e-02 2.695179e+00 4.837881e+00 4.825542e+00 3.793616e+00 3.423538e+00 4.065858e+00 4.563128e+00 4.032953e+00 3.869874e+00 3.791043e+00 3.968131e+00 3.197675e+00 4.585172e-03 4.774636e-01 5.181800e-01 4.846111e-01 5.141293e-01 4.564029e-01 6.189997e-01 5.871603e-01 6.630505e-01 7.410156e-01 7.398458e-01 6.551202e-01 5.282165e-01 1.002451e-03
<GCONST> 1.093829e+02
<MIXTURE> 8 5.539519e-02
<MEAN> 39
 2.270514e+00 6.307532e+00 4.253434e+00 2.381133e+00 -9.446086e-01 5.951663e-02 -2.040358e+00 1.892147e+00 2.660459e+00 3.823365e+00 4.647297e+00 5.201611e+00 4.395855e-01 2.470940e+00 2.269376e+00 -1.204712e+00 -2.435364e+00 -2.779888e+00 -3.151910e+00 -2.561060e+00 -2.219765e+00 -1.850993e+00 -1.302998e+00 -6.976271e-01 -2.433695e-01 2.003267e-01 -4.121065e-01 -4.566683e-01 -3.184519e-01 -2.425283e-01 3.117570e-01 2.307231e-01 3.155798e-01 2.017941e-01 -7.480574e-02 -3.244305e-01 -4.290413e-01 -5.714039e-01 -1.120742e-02
<VARIANCE> 39
 2.920885e+01 4.856736e+01 4.745065e+01 2.991290e+01 2.930796e+01 3.138778e+01 4.112858e+01 4.113893e+01 3.657204e+01 3.439612e+01 3.569292e+01 3.082284e+01 4.008731e-02 2.339764e+00 4.776370e+00 4.323023e+00 3.026227e+00 3.232196e+00 3.662639e+00 3.979192e+00 3.592122e+00 3.139639e+00 3.365830e+00 4.638891e+00 5.104631e+00 2.677630e-03 3.606059e-01 3.832399e-01 5.133888e-01 5.491271e-01 4.478146e-01 4.688538e-01 6.503285e-01 6.860620e-01 6.604881e-01 5.826275e-01 6.029319e-01 5.274158e-01 4.493795e-04
<GCONST> 1.056686e+02
<MIXTURE> 9 1.051571e-01
<MEAN> 39
 -2.638381e+00 -1.657979e+00 2.900218e+00 4.028447e+00 4.993857e+00 5.717463e+00 3.921910e+00 5.434169e+00 4.068645e+00 3.276071e+00 2.877125e+00 1.655004e+00 4.956088e-02 -6.550883e-01 1.336562e-01 9.291504e-02 4.192431e-01 2.428289e-01 4.680496e-01 3.448191e-01 4.125011e-01 2.786268e-01 1.569842e-01 1.055495e-01 6.593604e-03 -1.125202e-02 2.362169e-01 2.291237e-01 2.267569e-02 2.877466e-02 -1.450327e-01 -2.203778e-01 -1.987088e-01 -2.673488e-01 -2.139773e-01 -1.204323e-01 -7.778816e-02 4.591526e-03 2.542320e-02
<VARIANCE> 39
 1.549981e+01 4.907806e+01 2.652580e+01 2.830187e+01 2.792295e+01 2.842591e+01 3.082286e+01 3.485141e+01 3.114132e+01 2.768699e+01 2.858237e+01 2.204298e+01 2.199673e-02 1.356423e+00 1.683554e+00 1.545034e+00 1.762127e+00 1.827663e+00 1.947335e+00 2.290652e+00 2.747669e+00 2.556736e+00 2.221913e+00 2.195742e+00 2.192263e+00 3.622508e-03 3.096140e-01 4.547658e-01 3.047664e-01 3.384892e-01 4.228858e-01 4.124738e-01 5.022126e-01 5.459580e-01 5.595546e-01 5.273904e-01 4.550693e-01 4.153104e-01 9.513362e-04
<GCONST> 9.348520e+01
<MIXTURE> 10 1.178419e-01
<MEAN> 39
 -2.399835e+00 -1.824688e+00 9.700304e-01 1.564479e+00 1.783219e+00 2.518828e+00 6.276945e-01 1.531537e+00 3.302399e+00 8.135058e-01 1.429852e+00 9.889953e-01 2.922822e-02 -5.227299e-01 -2.141536e-01 -2.852407e-01 -9.990006e-02 -2.221190e-01 -1.383648e-01 -1.265741e-01 3.307638e-02 -4.418533e-02 3.444916e-02 3.757812e-02 -4.491289e-02 -2.349572e-02 1.648920e-01 2.260153e-01 1.759607e-01 1.924503e-01 1.562445e-01 1.146328e-01 6.723227e-02 4.751489e-02 -1.086230e-02 -3.152043e-03 -4.573004e-02 -2.897307e-02 1.737720e-02
<VARIANCE> 39
 1.335775e+01 4.313771e+01 1.968649e+01 2.476374e+01 2.577517e+01 2.550907e+01 2.833674e+01 3.415053e+01 2.593964e+01 2.887491e+01 2.644507e+01 2.047421e+01 2.033434e-02 1.036215e+00 1.388024e+00 1.235926e+00 1.401818e+00 1.592407e+00 1.629324e+00 1.874747e+00 2.021318e+00 2.199116e+00 2.066035e+00 1.914036e+00 1.558185e+00 3.020192e-03 1.451842e-01 2.540066e-01 2.210715e-01 2.621405e-01 3.107743e-01 3.553164e-01 3.728892e-01 4.135342e-01 4.345817e-01 4.106961e-01 3.812685e-01 3.433889e-01 4.360194e-04
<GCONST> 8.489117e+01
<MIXTURE> 11 1.178430e-01
<MEAN> 39
 -2.399835e+00 -1.824684e+00 9.700319e-01 1.564480e+00 1.783220e+00 2.518829e+00 6.276935e-01 1.531539e+00 3.302400e+00 8.135061e-01 1.429852e+00 9.889945e-01 2.922817e-02 -5.227297e-01 -2.141535e-01 -2.852408e-01 -9.990004e-02 -2.221190e-01 -1.383647e-01 -1.265741e-01 3.307655e-02 -4.418531e-02 3.444915e-02 3.757792e-02 -4.491287e-02 -2.349572e-02 1.648920e-01 2.260152e-01 1.759605e-01 1.924503e-01 1.562445e-01 1.146327e-01 6.723205e-02 4.751496e-02 -1.086233e-02 -3.152082e-03 -4.573005e-02 -2.897286e-02 1.737720e-02
<VARIANCE> 39
 1.335774e+01 4.313767e+01 1.968647e+01 2.476374e+01 2.577518e+01 2.550908e+01 2.833672e+01 3.415050e+01 2.593964e+01 2.887490e+01 2.644505e+01 2.047419e+01 2.033435e-02 1.036215e+00 1.388025e+00 1.235927e+00 1.401818e+00 1.592406e+00 1.629323e+00 1.874746e+00 2.021317e+00 2.199114e+00 2.066034e+00 1.914037e+00 1.558184e+00 3.020190e-03 1.451840e-01 2.540064e-01 2.210714e-01 2.621403e-01 3.107740e-01 3.553166e-01 3.728893e-01 4.135340e-01 4.345813e-01 4.106957e-01 3.812683e-01 3.433889e-01 4.360192e-04
<GCONST> 8.489115e+01
<MIXTURE> 12 4.470433e-02
<MEAN> 39
 -1.689391e+00 -4.786036e+00 7.383385e-01 3.540389e+00 3.611031e+00 2.363851e+00 1.750000e+00 7.382274e-01 3.194624e+00 2.023283e+00 7.689160e-01 1.517345e+00 1.820240e-01 -1.185498e+00 -1.390358e+00 -1.714299e+00 -1.728289e+00 -1.692904e+00 -1.543955e+00 -1.161514e+00 -6.254138e-01 -4.267895e-01 -2.273007e-01 2.112524e-01 2.315290e-01 -1.070711e-01 3.605702e-01 4.371708e-01 3.851199e-01 2.231673e-01 1.518694e-01 1.010719e-01 -1.138182e-01 -2.265699e-01 -1.690719e-01 -1.160282e-01 -1.616961e-01 -2.293741e-01 2.054991e-02
<VARIANCE> 39
 1.275658e+01 3.918347e+01 2.981005e+01 3.001747e+01 3.210170e+01 2.688139e+01 2.764308e+01 4.290021e+01 4.433874e+01 3.300969e+01 3.348412e+01 1.752906e+01 1.402040e-02 4.572945e-01 1.022339e+00 9.031938e-01 1.256007e+00 1.512099e+00 1.352604e+00 1.947811e+00 2.176318e+00 3.223218e+00 2.787461e+00 2.213323e+00 2.112351e+00 9.062585e-04 1.171232e-01 1.833461e-01 2.233847e-01 2.817673e-01 3.614826e-01 3.686575e-01 4.003736e-01 4.819001e-01 5.594131e-01 4.247496e-01 4.533109e-01 3.288437e-01 1.750703e-04
<GCONST> 8.392232e+01
~h "#i"
<BEGINHMM>
<NUMSTATES> 15
<STATE> 2
<NUMMIXES> 8
<MIXTURE> 1 6.757543e-02
<MEAN> 39
 -4.146555e+00 9.077435e+00 -5.763563e+00 -4.219807e+00 -7.834219e+00 -4.950687e+00 2.419474e+00 2.519753e+00 1.021400e+01 1.203443e+01 1.165309e+01 9.275814e+00 8.656811e-01 -3.870672e-01 1.772004e-01 1.042047e-01 2.345216e-01 -3.676678e-01 -2.380494e-01 -5.789298e-01 -2.133787e-01 7.833771e-01 1.754015e+00 1.487974e+00 1.001249e+00 2.560387e-02 4.378321e-01 7.892340e-02 2.148931e-01 2.405255e-01 2.638218e-01 2.647379e-01 2.326962e-01 2.571218e-01 -2.722217e-01 -5.713157e-01 -8.318440e-01 -7.690752e-01 -1.131793e-02
<VARIANCE> 39
 2.010441e+01 3.109033e+01 2.944038e+01 1.967235e+01 1.602856e+01 1.223164e+01 2.625623e+01 4.173311e+01 7.291048e+01 6.792155e+01 4.288743e+01 8.294405e+01 9.157212e-03 1.145188e+00 1.463782e+00 9.472168e-01 1.423021e+00 1.395480e+00 1.855645e+00 2.600631e+00 2.010479e+00 4.720296e+00 5.789354e+00 6.063781e+00 5.044728e+00 3.153417e-04 1.177452e-01 2.607490e-01 3.014261e-01 2.875541e-01 2.797658e-01 3.516763e-01 3.428886e-01 4.311521e-01 7.173430e-01 8.927266e-01 6.190680e-01 6.702332e-01 2.513065e-04
<GCONST> 9.105913e+01
<MIXTURE> 2 1.458658e-01
<MEAN> 39
 1.883125e-01 1.145826e+01 -1.865403e+00 -3.441377e+00 -4.359830e+00 -4.983562e+00 -3.262391e+00 4.265193e-01 -5.341130e-01 -6.636375e-01 8.703934e-01 4.722397e-02 7.437953e-01 -2.681324e-01 1.182097e+00 -2.193530e-01 6.951426e-01 -4.155183e-01 -1.491410e-03 -5.933660e-01 -2.073758e-01 -3.497955e-01 -9.964866e-02 4.126219e-01 5.117511e-01 1.805072e-02 2.732245e-02 -3.533837e-01 1.441013e-01 4.807228e-02 -2.619451e-02 1.996976e-01 8.297388e-02 5.914481e-02 4.343909e-02 6.706861e-02 -6.290403e-02 4.197389e-02 -4.275323e-04
<VARIANCE> 39
 1.335945e+01 3.140596e+01 2.941470e+01 2.890606e+01 2.685584e+01 2.829614e+01 5.452081e+01 3.473705e+01 3.809371e+01 5.109622e+01 5.129900e+01 5.882338e+01 1.808502e-02 9.509375e-01 1.984441e+00 1.258850e+00 2.092423e+00 1.556827e+00 2.293394e+00 2.691717e+00 2.948666e+00 2.882814e+00 3.466911e+00 4.374578e+00 5.478481e+00 9.474167e-04 1.526157e-01 3.162983e-01 2.501925e-01 4.184539e-01 4.538929e-01 5.570794e-01 4.978141e-01 4.697169e-01 5.244091e-01 6.097155e-01 6.351424e-01 6.642596e-01 2.884012e-04
<GCONST> 9.540944e+01
<MIXTURE> 3 1.458661e-01
<MEAN> 39
 1.883132e-01 1.145826e+01 -1.865404e+00 -3.441377e+00 -4.359832e+00 -4.983562e+00 -3.262393e+00 4.265155e-01 -5.341134e-01 -6.636413e-01 8.703915e-01 4.722274e-02 7.437953e-01 -2.681330e-01 1.182096e+00 -2.193531e-01 6.951419e-01 -4.155178e-01 -1.491302e-03 -5.933661e-01 -2.073762e-01 -3.497953e-01 -9.964908e-02 4.126223e-01 5.117512e-01 1.805074e-02 2.732231e-02 -3.533838e-01 1.441014e-01 4.807255e-02 -2.619395e-02 1.996978e-01 8.297419e-02 5.914509e-02 4.343933e-02 6.706890e-02 -6.290367e-02 4.197406e-02 -4.275481e-04
<VARIANCE> 39
 1.335945e+01 3.140597e+01 2.941467e+01 2.890605e+01 2.685583e+01 2.829612e+01 5.452082e+01 3.473706e+01 3.809367e+01 5.109619e+01 5.129901e+01 5.882343e+01 1.808502e-02 9.509376e-01 1.984440e+00 1.258849e+00 2.092422e+00 1.556828e+00 2.293392e+00 2.691713e+00 2.948663e+00 2.882810e+00 3.466905e+00 4.374577e+00 5.478486e+00 9.474171e-04 1.526158e-01 3.162982e-01 2.501925e-01 4.184537e-01 4.538929e-01 5.570789e-01 4.978142e-01 4.697168e-01 5.244086e-01 6.097155e-01 6.351421e-01 6.642594e-01 2.884017e-04
<GCONST> 9.540943e+01
<MIXTURE> 4 1.516838e-01
<MEAN> 39
 9.663795e-01 1.260742e+01 -1.713210e+00 -2.403227e+00 -4.671331e+00 -4.650889e+00 -1.257831e+00 1.664782e+00 5.592279e-02 8.824469e-01 -3.906840e-01 1.669776e+00 7.531884e-01 -5.333568e-01 8.498502e-01 -7.245808e-01 1.481345e-01 -8.352225e-01 -5.798087e-01 -1.078615e+00 -9.624016e-01 -1.158628e+00 -1.175285e+00 -7.519077e-01 -2.789968e-01 3.658854e-02 -1.455732e-01 -6.845482e-01 1.516826e-01 1.113973e-01 1.436236e-01 2.473876e-01 2.121083e-02 -4.947162e-02 -2.353070e-02 -4.173790e-02 -3.010309e-03 -8.554954e-02 -9.764966e-03
<VARIANCE> 39
 1.357830e+01 3.445749e+01 2.171169e+01 2.455164e+01 2.138012e+01 2.483937e+01 4.423993e+01 2.762763e+01 2.937761e+01 3.092019e+01 3.826224e+01 4.296566e+01 1.290130e-02 8.423988e-01 1.910325e+00 1.003742e+00 2.174869e+00 1.625789e+00 2.175294e+00 1.841164e+00 2.302941e+00 2.150877e+00 2.354774e+00 3.479190e+00 2.673422e+00 1.310555e-03 1.613472e-01 3.646604e-01 2.850582e-01 4.110725e-01 5.185497e-01 5.277144e-01 4.451357e-01 4.166559e-01 4.331358e-01 4.366483e-01 5.409898e-01 5.345670e-01 5.781055e-04
<GCONST> 9.021329e+01
<MIXTURE> 5 1.458661e-01
<MEAN> 39
 1.883132e-01 1.145826e+01 -1.865404e+00 -3.441377e+00 -4.359832e+00 -4.983562e+00 -3.262393e+00 4.265155e-01 -5.341134e-01 -6.636413e-01 8.703915e-01 4.722274e-02 7.437953e-01 -2.681330e-01 1.182096e+00 -2.193531e-01 6.951419e-01 -4.155178e-01 -1.491302e-03 -5.933661e-01 -2.073762e-01 -3.497953e-01 -9.964908e-02 4.126223e-01 5.117512e-01 1.805074e-02 2.732231e-02 -3.533838e-01 1.441014e-01 4.807255e-02 -2.619395e-02 1.996978e-01 8.297419e-02 5.914509e-02 4.343933e-02 6.706890e-02 -6.290367e-02 4.197406e-02 -4.275481e-04
<VARIANCE> 39
 1.335945e+01 3.140597e+01 2.941467e+01 2.890605e+01 2.685583e+01 2.829612e+01 5.452082e+01 3.473706e+01 3.809367e+01 5.109619e+01 5.129901e+01 5.882343e+01 1.808502e-02 9.509376e-01 1.984440e+00 1.258849e+00 2.092422e+00 1.556828e+00 2.293392e+00 2.691713e+00 2.948663e+00 2.882810e+00 3.466905e+00 4.374577e+00 5.478486e+00 9.474171e-04 1.526158e-01 3.162982e-01 2.501925e-01 4.184537e-01 4.538929e-01 5.570789e-01 4.978142e-01 4.697168e-01 5.244086e-01 6.097155e-01 6.351421e-01 6.642594e-01 2.884017e-04
<GCONST> 9.540943e+01
<MIXTURE> 6 1.516839e-01
<MEAN> 39
 9.663789e-01 1.260742e+01 -1.713210e+00 -2.403228e+00 -4.671332e+00 -4.650890e+00 -1.257831e+00 1.664783e+00 5.592249e-02 8.824465e-01 -3.906849e-01 1.669776e+00 7.531884e-01 -5.333568e-01 8.498501e-01 -7.245808e-01 1.481345e-01 -8.352226e-01 -5.798087e-01 -1.078615e+00 -9.624016e-01 -1.158628e+00 -1.175285e+00 -7.519076e-01 -2.789968e-01 3.658855e-02 -1.455732e-01 -6.845484e-01 1.516827e-01 1.113975e-01 1.436237e-01 2.473878e-01 2.121084e-02 -4.947159e-02 -2.353060e-02 -4.173779e-02 -3.010146e-03 -8.554954e-02 -9.764976e-03
<VARIANCE> 39
 1.357829e+01 3.445750e+01 2.171169e+01 2.455163e+01 2.138011e+01 2.483936e+01 4.423992e+01 2.762762e+01 2.937762e+01 3.092019e+01 3.826223e+01 4.296565e+01 1.290130e-02 8.423987e-01 1.910324e+00 1.003742e+00 2.174868e+00 1.625789e+00 2.175292e+00 1.841163e+00 2.302941e+00 2.150877e+00 2.354773e+00 3.479190e+00 2.673422e+00 1.310555e-03 1.613472e-01 3.646605e-01 2.850581e-01 4.110725e-01 5.185494e-01 5.277142e-01 4.451357e-01 4.166558e-01 4.331358e-01 4.366482e-01 5.409896e-01 5.345669e-01 5.781056e-04
<GCONST> 9.021329e+01
<MIXTURE> 7 1.516843e-01
<MEAN> 39
 9.663778e-01 1.260742e+01 -1.713211e+00 -2.403229e+00 -4.671332e+00 -4.650891e+00 -1.257832e+00 1.664783e+00 5.592091e-02 8.824461e-01 -3.906864e-01 1.669775e+00 7.531884e-01 -5.333570e-01 8.498499e-01 -7.245811e-01 1.481346e-01 -8.352228e-01 -5.798088e-01 -1.078615e+00 -9.624018e-01 -1.158629e+00 -1.175285e+00 -7.519080e-01 -2.789970e-01 3.658854e-02 -1.455730e-01 -6.845483e-01 1.516829e-01 1.113977e-01 1.436238e-01 2.473881e-01 2.121097e-02 -4.947145e-02 -2.353046e-02 -4.173772e-02 -3.009924e-03 -8.554947e-02 -9.764980e-03
<VARIANCE> 39
 1.357828e+01 3.445747e+01 2.171168e+01 2.455162e+01 2.138011e+01 2.483934e+01 4.423988e+01 2.762761e+01 2.937761e+01 3.092017e+01 3.826221e+01 4.296567e+01 1.290129e-02 8.423990e-01 1.910323e+00 1.003741e+00 2.174867e+00 1.625789e+00 2.175293e+00 1.841163e+00 2.302941e+00 2.150876e+00 2.354773e+00 3.479191e+00 2.673423e+00 1.310554e-03 1.613472e-01 3.646604e-01 2.850581e-01 4.110725e-01 5.185497e-01 5.277139e-01 4.451357e-01 4.166557e-01 4.331357e-01 4.366481e-01 5.409896e-01 5.345667e-01 5.781059e-04
<GCONST> 9.021327e+01
<MIXTURE> 8 3.977358e-02
<MEAN> 39
 -2.339246e+00 9.870895e+00 -2.512971e+00 -9.744718e+00 -3.750543e+00 -1.234408e+01 1.474040e+00 4.237741e-01 -6.298166e-01 -2.540251e+00 -7.630101e-01 -2.837235e+00 8.165487e-01 -9.772445e-01 2.087150e+00 -2.133270e+00 1.418872e+00 -1.519857e+00 -2.289557e+00 -4.994861e-01 -1.913184e+00 -2.416727e+00 -1.139295e+00 -7.875881e-01 3.678655e-03 -3.813579e-03 3.168107e-01 -7.650386e-01 3.485760e-01 9.095492e-01 -3.996935e-01 1.354189e+00 -7.574960e-02 -2.325921e-01 -6.931453e-02 1.045429e-01 -3.647201e-01 1.851306e-01 -3.358331e-03
<VARIANCE> 39
 9.837597e+00 2.825622e+01 1.572440e+01 3.329966e+01 1.852581e+01 3.419522e+01 4.071628e+01 3.485210e+01 3.403603e+01 5.637506e+01 3.046211e+01 4.153785e+01 5.193203e-03 4.997132e-01 2.501682e+00 7.584080e-01 3.328041e+00 1.975692e+00 4.768629e+00 2.354658e+00 2.624782e+00 4.238945e+00 4.264297e+00 3.809040e+00 2.868054e+00 8.708221e-04 1.114094e-01 3.793037e-01 3.934276e-01 7.019385e-01 6.448680e-01 7.042767e-01 3.750961e-01 6.014599e-01 9.910353e-01 9.238762e-01 4.062275e-01 6.015291e-01 2.145424e-04
<GCONST> 9.349630e+01
<STATE> 3
<NUMMIXES> 8
<MIXTURE> 1 5.683860e-02
<MEAN> 39
 -3.395429e+00 1.017120e+01 -8.054996e+00 -4.489846e+00 -9.329378e+00 -9.680393e+00 -3.932070e+00 -5.156800e+00 -2.700268e+00 -9.358269e-01 -1.566491e+00 7.021256e+00 8.998897e-01 -3.147137e-02 1.063951e-01 2.437769e-01 6.293890e-01 3.435749e-01 4.498207e-01 -1.809902e-01 -2.806984e-01 7.152517e-02 8.123729e-02 5.680416e-01 8.036230e-01 1.459187e-02 4.138553e-01 3.203661e-01 4.884762e-01 4.135713e-01 5.614235e-01 6.222851e-01 5.705767e-01 7.125786e-01 4.832087e-01 4.311340e-01 3.461550e-01 -7.029817e-02 -6.816711e-03
<VARIANCE> 39
 1.794495e+01 2.703649e+01 1.591300e+01 1.600759e+01 1.934879e+01 2.267535e+01 2.391470e+01 2.075586e+01 4.983052e+01 4.586055e+01 1.024816e+02 1.112099e+02 5.677259e-03 4.088460e-01 4.985338e-01 6.636051e-01 1.049677e+00 1.088037e+00 1.168217e+00 1.462809e+00 1.220515e+00 9.067962e-01 1.659364e+00 2.236161e+00 3.548038e+00 1.308183e-04 6.774412e-02 8.227170e-02 1.281455e-01 1.534726e-01 2.067943e-01 2.172299e-01 2.722621e-01 2.035490e-01 2.678770e-01 4.304457e-01 6.977113e-01 7.813712e-01 5.218520e-05
<GCONST> 7.226086e+01
<MIXTURE> 2 1.295048e-01
<MEAN> 39
 -1.187188e+00 1.217690e+01 -2.481666e+00 -2.164251e+00 -5.998629e+00 -5.342039e+00 -6.117088e+00 -1.770694e+00 -3.778597e+00 -3.218511e+00 -1.367186e+00 -5.325521e-01 8.512897e-01 -9.055050e-02 3.667881e-01 6.894607e-02 4.857441e-01 7.850123e-02 1.035111e-01 -1.387806e-01 -1.638137e-01 -8.311187e-02 -1.314894e-01 4.668628e-02 2.605033e-01 1.480285e-02 1.552741e-01 -5.640503e-02 1.375165e-01 3.880393e-03 1.538510e-01 7.862999e-02 2.087935e-01 2.409075e-01 3.436265e-01 2.755958e-01 1.452146e-01 8.310243e-02 -3.845054e-03
<VARIANCE> 39
 1.074483e+01 3.921912e+01 2.142120e+01 1.584294e+01 2.382346e+01 3.057329e+01 3.542260e+01 2.953222e+01 2.574406e+01 3.149374e+01 5.066440e+01 3.754582e+01 7.182282e-03 3.866957e-01 6.149073e-01 7.645078e-01 9.518155e-01 1.059180e+00 9.691703e-01 1.341642e+00 1.418359e+00 1.525114e+00 1.544526e+00 1.578847e+00 1.508033e+00 1.767042e-04 7.216883e-02 1.273006e-01 1.475512e-01 1.862052e-01 2.135848e-01 2.530964e-01 2.467391e-01 3.092550e-01 2.849061e-01 2.565586e-01 3.408073e-01 2.826724e-01 3.736941e-05
<GCONST> 6.947698e+01
<MIXTURE> 3 1.295046e-01
<MEAN> 39
 -1.187188e+00 1.217690e+01 -2.481666e+00 -2.164251e+00 -5.998628e+00 -5.342037e+00 -6.117089e+00 -1.770694e+00 -3.778595e+00 -3.218510e+00 -1.367183e+00 -5.325524e-01 8.512898e-01 -9.055071e-02 3.667880e-01 6.894614e-02 4.857440e-01 7.850125e-02 1.035108e-01 -1.387805e-01 -1.638137e-01 -8.311185e-02 -1.314895e-01 4.668646e-02 2.605032e-01 1.480286e-02 1.552741e-01 -5.640509e-02 1.375165e-01 3.880452e-03 1.538508e-01 7.862996e-02 2.087935e-01 2.409075e-01 3.436263e-01 2.755957e-01 1.452145e-01 8.310239e-02 -3.845058e-03
<VARIANCE> 39
 1.074483e+01 3.921912e+01 2.142120e+01 1.584294e+01 2.382347e+01 3.057329e+01 3.542262e+01 2.953221e+01 2.574405e+01 3.149374e+01 5.066439e+01 3.754581e+01 7.182277e-03 3.866960e-01 6.149071e-01 7.645076e-01 9.518151e-01 1.059180e+00 9.691705e-01 1.341642e+00 1.418360e+00 1.525114e+00 1.544526e+00 1.578846e+00 1.508034e+00 1.767044e-04 7.216889e-02 1.273007e-01 1.475511e-01 1.862054e-01 2.135849e-01 2.530963e-01 2.467393e-01 3.092551e-01 2.849059e-01 2.565587e-01 3.408072e-01 2.826723e-01 3.736940e-05
<GCONST> 6.947699e+01
<MIXTURE> 4 1.499674e-01
<MEAN> 39
 -7.322023e-01 1.432190e+01 -8.775951e-01 -2.059791e+00 -6.219460e+00 -5.666224e+00 -7.433753e+00 5.533533e-01 -1.829183e+00 -1.710984e+00 9.477810e-01 -9.402665e-01 8.230887e-01 -3.454583e-01 3.794244e-01 -2.856354e-01 1.042461e-01 -4.304128e-01 -2.542945e-01 -6.186253e-01 -3.590784e-01 -4.459468e-01 -4.521912e-01 -2.194376e-01 -4.003345e-01 1.661133e-02 6.487102e-02 -2.038257e-01 3.850622e-02 -1.137854e-01 8.747973e-02 8.714855e-02 1.752209e-01 1.571454e-02 7.088430e-02 6.366348e-02 -1.292511e-02 6.489862e-02 -2.442907e-03
<VARIANCE> 39
 1.050253e+01 3.002870e+01 2.285802e+01 2.133473e+01 1.982329e+01 2.290407e+01 4.327440e+01 2.801510e+01 3.365339e+01 3.932486e+01 4.133660e+01 3.408425e+01 8.029803e-03 3.999352e-01 7.869996e-01 6.322264e-01 9.213282e-01 8.000827e-01 1.154538e+00 1.180413e+00 1.415544e+00 1.250312e+00 1.189912e+00 1.430573e+00 1.353871e+00 2.483684e-04 6.934930e-02 1.071226e-01 1.237205e-01 1.917455e-01 1.917084e-01 1.909748e-01 2.234652e-01 2.337160e-01 2.534685e-01 2.468881e-01 2.408516e-01 2.360290e-01 4.435078e-05
<GCONST> 6.738306e+01
<MIXTURE> 5 1.295044e-01
<MEAN> 39
 -1.187189e+00 1.217690e+01 -2.481665e+00 -2.164250e+00 -5.998627e+00 -5.342035e+00 -6.117090e+00 -1.770694e+00 -3.778595e+00 -3.218511e+00 -1.367182e+00 -5.325528e-01 8.512898e-01 -9.055084e-02 3.667879e-01 6.894615e-02 4.857439e-01 7.850135e-02 1.035108e-01 -1.387804e-01 -1.638136e-01 -8.311199e-02 -1.314895e-01 4.668651e-02 2.605031e-01 1.480286e-02 1.552742e-01 -5.640510e-02 1.375165e-01 3.880453e-03 1.538508e-01 7.862984e-02 2.087935e-01 2.409075e-01 3.436262e-01 2.755957e-01 1.452144e-01 8.310248e-02 -3.845059e-03
<VARIANCE> 39
 1.074483e+01 3.921912e+01 2.142119e+01 1.584294e+01 2.382344e+01 3.057328e+01 3.542258e+01 2.953222e+01 2.574406e+01 3.149374e+01 5.066439e+01 3.754581e+01 7.182276e-03 3.866962e-01 6.149070e-01 7.645075e-01 9.518149e-01 1.059180e+00 9.691696e-01 1.341641e+00 1.418359e+00 1.525114e+00 1.544526e+00 1.578846e+00 1.508034e+00 1.767042e-04 7.216889e-02 1.273006e-01 1.475511e-01 1.862052e-01 2.135847e-01 2.530962e-01 2.467391e-01 3.092549e-01 2.849059e-01 2.565586e-01 3.408072e-01 2.826723e-01 3.736941e-05
<GCONST> 6.947697e+01
<MIXTURE> 6 1.499679e-01
<MEAN> 39
 -7.322027e-01 1.432190e+01 -8.775941e-01 -2.059792e+00 -6.219458e+00 -5.666223e+00 -7.433751e+00 5.533533e-01 -1.829185e+00 -1.710986e+00 9.477809e-01 -9.402667e-01 8.230888e-01 -3.454583e-01 3.794243e-01 -2.856353e-01 1.042464e-01 -4.304125e-01 -2.542943e-01 -6.186250e-01 -3.590783e-01 -4.459464e-01 -4.521911e-01 -2.194370e-01 -4.003342e-01 1.661133e-02 6.487107e-02 -2.038256e-01 3.850613e-02 -1.137853e-01 8.747967e-02 8.714837e-02 1.752206e-01 1.571447e-02 7.088427e-02 6.366348e-02 -1.292507e-02 6.489857e-02 -2.442907e-03
<VARIANCE> 39
 1.050254e+01 3.002872e+01 2.285800e+01 2.133471e+01 1.982328e+01 2.290405e+01 4.327440e+01 2.801512e+01 3.365337e+01 3.932485e+01 4.133658e+01 3.408423e+01 8.029805e-03 3.999350e-01 7.869986e-01 6.322260e-01 9.213276e-01 8.000826e-01 1.154538e+00 1.180412e+00 1.415542e+00 1.250313e+00 1.189912e+00 1.430574e+00 1.353870e+00 2.483683e-04 6.934927e-02 1.071225e-01 1.237205e-01 1.917454e-01 1.917083e-01 1.909747e-01 2.234651e-01 2.337159e-01 2.534686e-01 2.468878e-01 2.408513e-01 2.360289e-01 4.435071e-05
<GCONST> 6.738304e+01
<MIXTURE> 7 1.499682e-01
<MEAN> 39
 -7.322034e-01 1.432189e+01 -8.775971e-01 -2.059793e+00 -6.219456e+00 -5.666222e+00 -7.433750e+00 5.533487e-01 -1.829182e+00 -1.710986e+00 9.477838e-01 -9.402627e-01 8.230889e-01 -3.454585e-01 3.794236e-01 -2.856352e-01 1.042464e-01 -4.304128e-01 -2.542948e-01 -6.186253e-01 -3.590787e-01 -4.459467e-01 -4.521915e-01 -2.194371e-01 -4.003346e-01 1.661134e-02 6.487105e-02 -2.038256e-01 3.850638e-02 -1.137849e-01 8.747967e-02 8.714853e-02 1.752209e-01 1.571497e-02 7.088418e-02 6.366359e-02 -1.292538e-02 6.489860e-02 -2.442919e-03
<VARIANCE> 39
 1.050254e+01 3.002872e+01 2.285798e+01 2.133470e+01 1.982325e+01 2.290404e+01 4.327436e+01 2.801508e+01 3.365334e+01 3.932481e+01 4.133657e+01 3.408422e+01 8.029811e-03 3.999360e-01 7.869986e-01 6.322254e-01 9.213262e-01 8.000818e-01 1.154538e+00 1.180410e+00 1.415540e+00 1.250312e+00 1.189911e+00 1.430573e+00 1.353869e+00 2.483686e-04 6.934945e-02 1.071224e-01 1.237204e-01 1.917451e-01 1.917083e-01 1.909744e-01 2.234650e-01 2.337157e-01 2.534684e-01 2.468877e-01 2.408511e-01 2.360286e-01 4.435110e-05
<GCONST> 6.738304e+01
<MIXTURE> 8 1.047433e-01
<MEAN> 39
 -5.685993e-01 1.336378e+01 -3.828272e+00 -5.201900e-01 -6.088550e+00 -6.353194e+00 -1.440040e+00 -8.512872e-01 -2.464693e+00 -1.555626e-01 -6.126492e+00 4.741167e+00 8.421594e-01 -8.678431e-01 -8.167446e-01 -1.042206e+00 -5.515316e-01 -1.197919e+00 -1.390836e+00 -1.743635e+00 -1.637017e+00 -1.319093e+00 -1.447813e+00 -1.262612e+00 -8.388163e-01 2.567314e-02 9.058928e-02 -1.186298e-01 7.306640e-03 -7.120039e-02 3.062724e-02 1.228213e-02 2.089547e-03 -1.030359e-02 -1.295314e-02 4.542472e-03 1.043693e-01 -2.475595e-02 -5.293496e-03
<VARIANCE> 39
 1.571141e+01 2.747050e+01 1.318081e+01 1.364626e+01 1.016508e+01 1.252678e+01 1.968788e+01 2.888029e+01 1.963747e+01 2.158748e+01 1.758602e+01 1.777234e+01 6.477644e-03 3.402506e-01 3.488656e-01 4.812784e-01 6.950321e-01 7.500657e-01 8.325692e-01 7.368343e-01 1.124574e+00 9.988868e-01 1.199521e+00 1.407586e+00 1.529697e+00 2.056079e-04 8.313185e-02 7.591563e-02 1.099456e-01 1.394088e-01 1.602517e-01 1.916460e-01 2.519834e-01 2.208139e-01 1.987496e-01 1.669915e-01 2.374561e-01 2.168135e-01 2.724125e-05
<GCONST> 5.695665e+01
<STATE> 4
<NUMMIXES> 8
<MIXTURE> 1 1.376745e-01
<MEAN> 39
 -1.538776e+00 1.161520e+01 -4.624824e+00 -2.120016e+00 -7.017961e+00 -6.823950e+00 -4.512786e+00 -2.952836e+00 -3.338201e+00 -1.679216e+00 -2.592887e+00 2.020399e+00 8.870472e-01 2.295987e-01 3.615642e-01 3.566487e-01 5.806277e-01 4.365434e-01 5.535066e-01 4.200889e-01 3.969866e-01 4.182599e-01 2.876268e-01 5.272285e-01 3.680472e-01 7.317537e-03 9.107192e-02 3.208859e-02 1.554962e-01 2.779679e-02 2.080869e-01 1.238540e-01 2.344485e-01 2.596983e-01 2.245528e-01 1.799615e-01 1.042042e-01 9.070039e-03 -3.348657e-03
<VARIANCE> 39
 1.327139e+01 3.508696e+01 2.001549e+01 1.723806e+01 2.091138e+01 2.394106e+01 2.739428e+01 2.977372e+01 3.558378e+01 3.490561e+01 5.798575e+01 6.180720e+01 7.531437e-03 3.077025e-01 5.262986e-01 5.903515e-01 7.382603e-01 9.007998e-01 1.095632e+00 1.194308e+00 9.805087e-01 9.341136e-01 1.221485e+00 1.147362e+00 1.376497e+00 8.190067e-05 4.362831e-02 8.243040e-02 1.166427e-01 1.374798e-01 1.787655e-01 1.708706e-01 2.091865e-01 2.110687e-01 1.923852e-01 1.755528e-01 2.525880e-01 2.424341e-01 2.067028e-05
<GCONST> 6.233956e+01
<MIXTURE> 2 1.232325e-01
<MEAN> 39
 -1.291001e+00 1.117687e+01 -1.169156e+00 -1.220973e+00 -4.105017e+00 -3.807302e+00 -5.963829e+00 -1.480222e-01 -1.901056e+00 -2.397760e+00 1.306351e+00 -4.172720e-01 8.997552e-01 1.227920e-01 1.771882e-01 1.238783e-01 1.497122e-01 2.188892e-01 1.493025e-01 1.624147e-01 1.570065e-01 1.810742e-01 8.733121e-02 1.075583e-01 8.163527e-02 8.391566e-04 1.287174e-02 -3.309246e-02 2.086391e-03 -3.241771e-02 6.837001e-03 -3.310858e-02 3.171096e-02 -6.685514e-04 2.954000e-02 3.456731e-02 -6.460239e-03 5.374624e-03 -1.294623e-03
<VARIANCE> 39
 9.134609e+00 4.858777e+01 1.034847e+01 1.201330e+01 1.593637e+01 1.931043e+01 3.203439e+01 1.740339e+01 1.877989e+01 2.586166e+01 3.720717e+01 3.278325e+01 6.173523e-03 9.673743e-02 1.586728e-01 2.195162e-01 2.983612e-01 3.019316e-01 3.691369e-01 4.066882e-01 3.924630e-01 4.133034e-01 3.677404e-01 3.741699e-01 3.929662e-01 3.763867e-05 1.454150e-02 3.141660e-02 3.868221e-02 5.004352e-02 5.766471e-02 6.703449e-02 7.323682e-02 7.163385e-02 7.812313e-02 7.385345e-02 7.324459e-02 7.326791e-02 3.730629e-06
<GCONST> 3.030663e+01
<MIXTURE> 3 1.232324e-01
<MEAN> 39
 -1.291002e+00 1.117686e+01 -1.169159e+00 -1.220974e+00 -4.105012e+00 -3.807302e+00 -5.963820e+00 -1.480242e-01 -1.901057e+00 -2.397759e+00 1.306346e+00 -4.172703e-01 8.997553e-01 1.227921e-01 1.771880e-01 1.238784e-01 1.497119e-01 2.188890e-01 1.493025e-01 1.624149e-01 1.570065e-01 1.810743e-01 8.733124e-02 1.075582e-01 8.163528e-02 8.391494e-04 1.287176e-02 -3.309226e-02 2.086508e-03 -3.241756e-02 6.836961e-03 -3.310835e-02 3.171091e-02 -6.683780e-04 2.953999e-02 3.456737e-02 -6.460152e-03 5.374698e-03 -1.294622e-03
<VARIANCE> 39
 9.134600e+00 4.858774e+01 1.034846e+01 1.201330e+01 1.593633e+01 1.931042e+01 3.203433e+01 1.740337e+01 1.877987e+01 2.586159e+01 3.720714e+01 3.278322e+01 6.173525e-03 9.673720e-02 1.586723e-01 2.195155e-01 2.983606e-01 3.019308e-01 3.691361e-01 4.066875e-01 3.924623e-01 4.133024e-01 3.677398e-01 3.741690e-01 3.929654e-01 3.763863e-05 1.454149e-02 3.141653e-02 3.868214e-02 5.004342e-02 5.766460e-02 6.703436e-02 7.323663e-02 7.163365e-02 7.812297e-02 7.385328e-02 7.324449e-02 7.326778e-02 3.730629e-06
<GCONST> 3.030655e+01
<MIXTURE> 4 1.388934e-01
<MEAN> 39
 -1.794497e+00 1.307127e+01 -1.422318e+00 -1.782874e+00 -4.420164e+00 -5.404441e+00 -6.300699e+00 -5.671986e-01 -2.280675e+00 -2.749162e+00 7.606017e-01 -3.380574e-01 8.828657e-01 -4.549562e-02 -3.860934e-02 -1.245177e-01 -9.971114e-02 -2.409265e-02 -1.208004e-01 -5.307015e-02 -1.441245e-01 -3.213770e-02 -1.004331e-01 -7.575914e-02 -1.055070e-01 1.075036e-03 4.608896e-03 -3.353297e-02 3.976713e-04 -5.149479e-02 -1.052996e-02 -2.203662e-02 1.622644e-02 -9.620705e-05 9.966547e-03 1.175764e-02 -1.161010e-02 -1.096718e-02 -1.059467e-03
<VARIANCE> 39
 8.032450e+00 4.392166e+01 1.340835e+01 1.143551e+01 1.561708e+01 2.147385e+01 2.989298e+01 1.866740e+01 2.315292e+01 2.922241e+01 3.958661e+01 2.692231e+01 6.955230e-03 5.975600e-02 1.163856e-01 1.359731e-01 1.955418e-01 2.156509e-01 2.451152e-01 2.607367e-01 2.853803e-01 2.982597e-01 2.867897e-01 2.445503e-01 2.738005e-01 3.754082e-05 1.184040e-02 1.912269e-02 2.571421e-02 3.338124e-02 4.435008e-02 4.538021e-02 4.582886e-02 5.020399e-02 5.906054e-02 5.025676e-02 4.248060e-02 5.471265e-02 3.730629e-06
<GCONST> 2.162955e+01
<MIXTURE> 5 1.232333e-01
<MEAN> 39
 -1.291002e+00 1.117686e+01 -1.169160e+00 -1.220973e+00 -4.105012e+00 -3.807301e+00 -5.963819e+00 -1.480241e-01 -1.901057e+00 -2.397757e+00 1.306345e+00 -4.172687e-01 8.997554e-01 1.227921e-01 1.771879e-01 1.238784e-01 1.497121e-01 2.188890e-01 1.493025e-01 1.624150e-01 1.570066e-01 1.810743e-01 8.733127e-02 1.075582e-01 8.163533e-02 8.391485e-04 1.287174e-02 -3.309224e-02 2.086500e-03 -3.241753e-02 6.836957e-03 -3.310838e-02 3.171093e-02 -6.684081e-04 2.954002e-02 3.456730e-02 -6.460165e-03 5.374638e-03 -1.294622e-03
<VARIANCE> 39
 9.134602e+00 4.858774e+01 1.034846e+01 1.201329e+01 1.593632e+01 1.931040e+01 3.203431e+01 1.740336e+01 1.877990e+01 2.586161e+01 3.720713e+01 3.278321e+01 6.173526e-03 9.673717e-02 1.586722e-01 2.195155e-01 2.983606e-01 3.019310e-01 3.691361e-01 4.066872e-01 3.924622e-01 4.133023e-01 3.677396e-01 3.741688e-01 3.929651e-01 3.763859e-05 1.454146e-02 3.141651e-02 3.868214e-02 5.004339e-02 5.766458e-02 6.703431e-02 7.323658e-02 7.163364e-02 7.812291e-02 7.385326e-02 7.324440e-02 7.326776e-02 3.730629e-06
<GCONST> 3.030655e+01
<MIXTURE> 6 1.388950e-01
<MEAN> 39
 -1.794499e+00 1.307127e+01 -1.422318e+00 -1.782874e+00 -4.420162e+00 -5.404441e+00 -6.300692e+00 -5.671991e-01 -2.280671e+00 -2.749163e+00 7.606011e-01 -3.380551e-01 8.828657e-01 -4.549545e-02 -3.860945e-02 -1.245176e-01 -9.971123e-02 -2.409264e-02 -1.208003e-01 -5.306986e-02 -1.441244e-01 -3.213752e-02 -1.004328e-01 -7.575897e-02 -1.055067e-01 1.075026e-03 4.608836e-03 -3.353288e-02 3.975788e-04 -5.149477e-02 -1.052997e-02 -2.203669e-02 1.622625e-02 -9.627859e-05 9.966399e-03 1.175753e-02 -1.161010e-02 -1.096720e-02 -1.059465e-03
<VARIANCE> 39
 8.032445e+00 4.392162e+01 1.340835e+01 1.143548e+01 1.561707e+01 2.147383e+01 2.989295e+01 1.866738e+01 2.315290e+01 2.922240e+01 3.958658e+01 2.692230e+01 6.955226e-03 5.975581e-02 1.163852e-01 1.359727e-01 1.955411e-01 2.156505e-01 2.451146e-01 2.607362e-01 2.853796e-01 2.982588e-01 2.867891e-01 2.445496e-01 2.737997e-01 3.754082e-05 1.184037e-02 1.912263e-02 2.571417e-02 3.338112e-02 4.434994e-02 4.538011e-02 4.582876e-02 5.020384e-02 5.906032e-02 5.025660e-02 4.248050e-02 5.471250e-02 3.730629e-06
<GCONST> 2.162949e+01
<MIXTURE> 7 1.388934e-01
<MEAN> 39
 -1.794497e+00 1.307127e+01 -1.422318e+00 -1.782874e+00 -4.420164e+00 -5.404442e+00 -6.300698e+00 -5.671986e-01 -2.280674e+00 -2.749162e+00 7.606017e-01 -3.380563e-01 8.828657e-01 -4.549561e-02 -3.860931e-02 -1.245177e-01 -9.971114e-02 -2.409266e-02 -1.208003e-01 -5.307014e-02 -1.441245e-01 -3.213767e-02 -1.004331e-01 -7.575914e-02 -1.055070e-01 1.075035e-03 4.608892e-03 -3.353297e-02 3.976450e-04 -5.149481e-02 -1.052995e-02 -2.203661e-02 1.622642e-02 -9.622482e-05 9.966528e-03 1.175764e-02 -1.161010e-02 -1.096720e-02 -1.059467e-03
<VARIANCE> 39
 8.032451e+00 4.392162e+01 1.340835e+01 1.143551e+01 1.561709e+01 2.147384e+01 2.989298e+01 1.866740e+01 2.315293e+01 2.922243e+01 3.958660e+01 2.692232e+01 6.955230e-03 5.975601e-02 1.163855e-01 1.359730e-01 1.955417e-01 2.156509e-01 2.451150e-01 2.607366e-01 2.853803e-01 2.982596e-01 2.867897e-01 2.445502e-01 2.738003e-01 3.754082e-05 1.184040e-02 1.912268e-02 2.571421e-02 3.338123e-02 4.435008e-02 4.538021e-02 4.582885e-02 5.020401e-02 5.906053e-02 5.025674e-02 4.248059e-02 5.471263e-02 3.730629e-06
<GCONST> 2.162955e+01
<MIXTURE> 8 7.594096e-02
<MEAN> 39
 -1.020934e+00 1.034540e+01 -2.562080e+00 -6.824178e-01 -4.009512e+00 -4.452204e+00 -2.035099e+00 5.560560e-01 -2.373817e+00 -1.511262e+00 -3.778339e+00 1.840586e+00 9.056236e-01 -1.210681e-01 -4.327053e-01 -5.411407e-01 -4.044451e-01 -4.746118e-01 -5.483028e-01 -6.420632e-01 -6.374364e-01 -5.014473e-01 -5.338250e-01 -4.897369e-01 -5.858207e-01 2.215277e-03 -5.782643e-02 -1.268444e-01 -1.454301e-01 -1.762035e-01 -1.570233e-01 -1.359171e-01 -1.693930e-01 -2.078618e-01 -1.422540e-01 -9.023340e-02 -5.823984e-02 -1.435084e-01 -1.612224e-03
<VARIANCE> 39
 8.758519e+00 4.467986e+01 9.218987e+00 1.166914e+01 1.923075e+01 2.627888e+01 1.686872e+01 1.987871e+01 2.025000e+01 2.192453e+01 2.475066e+01 3.055628e+01 6.270517e-03 1.065965e-01 1.548904e-01 2.268519e-01 2.989663e-01 3.515673e-01 4.164532e-01 3.771524e-01 4.723423e-01 4.891284e-01 4.968887e-01 5.185607e-01 5.761034e-01 3.865766e-05 1.632459e-02 4.334832e-02 5.047178e-02 6.685583e-02 8.189727e-02 9.250041e-02 1.027130e-01 1.092013e-01 8.231063e-02 9.525019e-02 1.056194e-01 1.039553e-01 5.483917e-06
<GCONST> 3.500082e+01
<STATE> 5
<NUMMIXES> 8
<MIXTURE> 1 7.701105e-02
<MEAN> 39
 -2.273834e+00 1.042625e+01 -6.942365e+00 -3.437196e+00 -1.021554e+01 -9.186185e+00 -4.384015e+00 -4.008619e+00 -3.664091e+00 -3.607923e+00 -3.975991e+00 4.072329e+00 8.844737e-01 3.579421e-01 5.982258e-01 7.743568e-01 7.881218e-01 8.064027e-01 7.878016e-01 9.556769e-01 8.469184e-01 8.773000e-01 3.777990e-01 4.698656e-01 1.920155e-01 1.268043e-04 1.554658e-01 1.608999e-01 2.509373e-01 2.355785e-01 4.359810e-01 3.242317e-01 3.274739e-01 2.219302e-01 2.656009e-01 3.486397e-01 2.746903e-01 7.674877e-02 -9.954745e-04
<VARIANCE> 39
 1.920087e+01 3.075292e+01 1.802320e+01 1.771909e+01 1.813017e+01 2.577196e+01 1.845501e+01 2.429550e+01 3.795123e+01 5.257636e+01 7.713832e+01 1.045207e+02 1.056204e-02 3.080588e-01 3.832512e-01 3.851254e-01 6.294726e-01 6.567311e-01 8.700193e-01 7.202175e-01 7.652228e-01 6.032158e-01 9.929196e-01 7.643486e-01 1.119463e+00 3.754082e-05 4.821601e-02 5.638744e-02 7.795506e-02 1.307129e-01 1.493514e-01 1.143732e-01 1.018882e-01 1.380275e-01 1.395641e-01 1.371574e-01 1.765729e-01 1.757325e-01 8.453411e-06
<GCONST> 5.461488e+01
<MIXTURE> 2 1.293293e-01
<MEAN> 39
 -1.593730e-01 1.389391e+01 -4.599758e+00 -6.750627e-01 -6.926667e+00 -6.270746e+00 -4.430103e+00 -1.521134e+00 -3.016726e-01 -1.102286e+00 -8.462196e-01 2.280493e+00 8.886403e-01 2.007905e-01 2.304696e-01 2.665595e-01 3.248280e-01 3.687478e-01 2.423699e-01 4.241086e-01 3.623993e-01 4.705526e-01 4.424441e-01 2.720364e-01 1.517266e-01 -3.956012e-06 -1.109955e-02 -4.738530e-02 3.929709e-02 -7.038288e-02 4.989826e-02 -2.070767e-02 8.540238e-02 -9.181718e-03 8.660746e-03 6.539236e-02 1.899530e-02 1.219085e-04 -1.262531e-03
<VARIANCE> 39
 1.847690e+01 2.980878e+01 2.674613e+01 1.933725e+01 1.851825e+01 2.396634e+01 3.702882e+01 3.544545e+01 5.049821e+01 6.315509e+01 7.342015e+01 7.510640e+01 5.347923e-03 1.617938e-01 3.007311e-01 4.292071e-01 5.700544e-01 6.593169e-01 8.893092e-01 7.408102e-01 7.958217e-01 7.909518e-01 8.709503e-01 8.733200e-01 9.048390e-01 3.754082e-05 3.545745e-02 5.911376e-02 9.179197e-02 1.097372e-01 1.316577e-01 1.670301e-01 1.589588e-01 1.725334e-01 1.775766e-01 1.837517e-01 1.762122e-01 1.501809e-01 3.851299e-06
<GCONST> 5.497173e+01
<MIXTURE> 3 1.293305e-01
<MEAN> 39
 -1.593738e-01 1.389391e+01 -4.599756e+00 -6.750622e-01 -6.926667e+00 -6.270745e+00 -4.430105e+00 -1.521133e+00 -3.016731e-01 -1.102286e+00 -8.462311e-01 2.280481e+00 8.886403e-01 2.007906e-01 2.304697e-01 2.665597e-01 3.248279e-01 3.687482e-01 2.423697e-01 4.241087e-01 3.623993e-01 4.705522e-01 4.424439e-01 2.720363e-01 1.517264e-01 -3.967884e-06 -1.109942e-02 -4.738510e-02 3.929729e-02 -7.038246e-02 4.989844e-02 -2.070767e-02 8.540257e-02 -9.181446e-03 8.660826e-03 6.539230e-02 1.899569e-02 1.220666e-04 -1.262530e-03
<VARIANCE> 39
 1.847688e+01 2.980880e+01 2.674609e+01 1.933729e+01 1.851821e+01 2.396631e+01 3.702885e+01 3.544544e+01 5.049821e+01 6.315508e+01 7.342004e+01 7.510622e+01 5.347926e-03 1.617934e-01 3.007295e-01 4.292057e-01 5.700520e-01 6.593146e-01 8.893069e-01 7.408085e-01 7.958203e-01 7.909498e-01 8.709478e-01 8.733165e-01 9.048358e-01 3.754082e-05 3.545736e-02 5.911350e-02 9.179162e-02 1.097369e-01 1.316573e-01 1.670297e-01 1.589582e-01 1.725332e-01 1.775764e-01 1.837510e-01 1.762119e-01 1.501807e-01 3.851283e-06
<GCONST> 5.497166e+01
<MIXTURE> 4 1.500470e-01
<MEAN> 39
 -3.537965e-01 1.477800e+01 -2.918468e+00 -9.339101e-01 -6.195360e+00 -5.914447e+00 -6.058329e+00 -2.075530e+00 -1.615504e+00 -2.783026e+00 -1.037832e+00 -9.786012e-02 8.705147e-01 -4.643892e-02 -1.015328e-01 -1.389804e-01 -1.669208e-01 -1.123152e-01 -2.414276e-01 1.545289e-02 -1.754239e-01 3.744349e-02 -1.523544e-02 -8.689962e-02 -1.659826e-01 1.747865e-04 -2.359012e-02 -7.344927e-02 1.129134e-02 -8.951274e-02 4.572652e-02 -5.860525e-02 3.119364e-02 1.768087e-02 5.913154e-02 -1.504397e-02 -3.590792e-02 -1.697846e-02 -1.389779e-03
<VARIANCE> 39
 1.539719e+01 3.241936e+01 2.513023e+01 1.897107e+01 2.188025e+01 2.972245e+01 3.760476e+01 3.290707e+01 2.604096e+01 3.201054e+01 5.659791e+01 5.329556e+01 5.974996e-03 1.246160e-01 2.470177e-01 3.485908e-01 4.982192e-01 5.328481e-01 6.510793e-01 7.771568e-01 6.150832e-01 6.798620e-01 6.971534e-01 6.833627e-01 6.914420e-01 4.639694e-05 2.787362e-02 6.017613e-02 8.433314e-02 1.061355e-01 1.155466e-01 1.569132e-01 1.608654e-01 1.507245e-01 1.688098e-01 1.458813e-01 1.352389e-01 1.607841e-01 6.078909e-06
<GCONST> 5.039084e+01
<MIXTURE> 5 1.293315e-01
<MEAN> 39
 -1.593710e-01 1.389391e+01 -4.599754e+00 -6.750565e-01 -6.926655e+00 -6.270737e+00 -4.430093e+00 -1.521132e+00 -3.016647e-01 -1.102273e+00 -8.462180e-01 2.280500e+00 8.886403e-01 2.007912e-01 2.304707e-01 2.665616e-01 3.248297e-01 3.687494e-01 2.423716e-01 4.241104e-01 3.624007e-01 4.705535e-01 4.424456e-01 2.720377e-01 1.517275e-01 -3.956036e-06 -1.110006e-02 -4.738599e-02 3.929613e-02 -7.038377e-02 4.989685e-02 -2.070919e-02 8.540147e-02 -9.182519e-03 8.659570e-03 6.539111e-02 1.899455e-02 1.212024e-04 -1.262532e-03
<VARIANCE> 39
 1.847688e+01 2.980874e+01 2.674608e+01 1.933726e+01 1.851820e+01 2.396630e+01 3.702877e+01 3.544545e+01 5.049821e+01 6.315500e+01 7.342006e+01 7.510630e+01 5.347925e-03 1.617936e-01 3.007306e-01 4.292063e-01 5.700532e-01 6.593168e-01 8.893086e-01 7.408106e-01 7.958210e-01 7.909515e-01 8.709489e-01 8.733193e-01 9.048390e-01 3.754082e-05 3.545742e-02 5.911354e-02 9.179179e-02 1.097370e-01 1.316575e-01 1.670297e-01 1.589583e-01 1.725331e-01 1.775760e-01 1.837513e-01 1.762119e-01 1.501808e-01 3.851300e-06
<GCONST> 5.497170e+01
<MIXTURE> 6 1.500464e-01
<MEAN> 39
 -3.537968e-01 1.477800e+01 -2.918466e+00 -9.339111e-01 -6.195359e+00 -5.914447e+00 -6.058330e+00 -2.075529e+00 -1.615502e+00 -2.783026e+00 -1.037830e+00 -9.786221e-02 8.705147e-01 -4.643887e-02 -1.015326e-01 -1.389801e-01 -1.669207e-01 -1.123149e-01 -2.414272e-01 1.545307e-02 -1.754237e-01 3.744359e-02 -1.523516e-02 -8.689968e-02 -1.659824e-01 1.747912e-04 -2.359016e-02 -7.344947e-02 1.129126e-02 -8.951285e-02 4.572639e-02 -5.860538e-02 3.119344e-02 1.768063e-02 5.913142e-02 -1.504411e-02 -3.590808e-02 -1.697846e-02 -1.389782e-03
<VARIANCE> 39
 1.539719e+01 3.241935e+01 2.513024e+01 1.897110e+01 2.188026e+01 2.972247e+01 3.760476e+01 3.290707e+01 2.604096e+01 3.201052e+01 5.659789e+01 5.329556e+01 5.974999e-03 1.246159e-01 2.470179e-01 3.485908e-01 4.982190e-01 5.328479e-01 6.510798e-01 7.771567e-01 6.150831e-01 6.798618e-01 6.971539e-01 6.833633e-01 6.914419e-01 4.639706e-05 2.787364e-02 6.017619e-02 8.433325e-02 1.061356e-01 1.155467e-01 1.569131e-01 1.608654e-01 1.507246e-01 1.688098e-01 1.458815e-01 1.352388e-01 1.607840e-01 6.078947e-06
<GCONST> 5.039090e+01
<MIXTURE> 7 1.500479e-01
<MEAN> 39
 -3.537972e-01 1.477800e+01 -2.918469e+00 -9.339085e-01 -6.195358e+00 -5.914446e+00 -6.058327e+00 -2.075529e+00 -1.615504e+00 -2.783025e+00 -1.037833e+00 -9.785920e-02 8.705148e-01 -4.643887e-02 -1.015327e-01 -1.389798e-01 -1.669203e-01 -1.123149e-01 -2.414272e-01 1.545315e-02 -1.754234e-01 3.744387e-02 -1.523518e-02 -8.689956e-02 -1.659824e-01 1.747766e-04 -2.359017e-02 -7.344939e-02 1.129119e-02 -8.951291e-02 4.572628e-02 -5.860537e-02 3.119345e-02 1.768066e-02 5.913132e-02 -1.504397e-02 -3.590793e-02 -1.697874e-02 -1.389779e-03
<VARIANCE> 39
 1.539715e+01 3.241930e+01 2.513017e+01 1.897104e+01 2.188020e+01 2.972236e+01 3.760465e+01 3.290701e+01 2.604090e+01 3.201049e+01 5.659781e+01 5.329548e+01 5.974990e-03 1.246156e-01 2.470168e-01 3.485900e-01 4.982179e-01 5.328461e-01 6.510776e-01 7.771543e-01 6.150817e-01 6.798605e-01 6.971515e-01 6.833608e-01 6.914402e-01 4.639672e-05 2.787358e-02 6.017594e-02 8.433280e-02 1.061352e-01 1.155463e-01 1.569126e-01 1.608648e-01 1.507239e-01 1.688091e-01 1.458807e-01 1.352385e-01 1.607836e-01 6.078894e-06
<GCONST> 5.039075e+01
<MIXTURE> 8 8.485562e-02
<MEAN> 39
 2.397905e-01 1.401961e+01 -4.545884e+00 6.892660e-01 -6.679993e+00 -6.824117e+00 -2.119661e+00 -1.922105e+00 -2.343077e+00 -8.150172e-01 -4.936938e+00 3.547100e+00 8.808233e-01 -2.826079e-01 -5.530270e-01 -6.735752e-01 -6.492462e-01 -7.737616e-01 -9.135129e-01 -5.461649e-01 -7.590237e-01 -6.944748e-01 -5.480424e-01 -4.928037e-01 -4.999219e-01 1.493057e-03 -1.057006e-01 -1.493338e-01 -1.774859e-01 -2.940983e-01 -1.759567e-01 -2.489691e-01 -1.682635e-01 -1.575400e-01 -1.663495e-01 -2.418364e-01 -1.274696e-01 -1.880592e-01 -1.170200e-03
<VARIANCE> 39
 1.613702e+01 2.361470e+01 1.220927e+01 1.294069e+01 1.394551e+01 2.147125e+01 1.648016e+01 2.401437e+01 2.489542e+01 2.778199e+01 2.773912e+01 3.936129e+01 5.855857e-03 1.044981e-01 2.508957e-01 2.272451e-01 4.004962e-01 4.542362e-01 4.496677e-01 5.834413e-01 4.999201e-01 4.424683e-01 4.808145e-01 4.937226e-01 6.916519e-01 3.754082e-05 1.777036e-02 4.823282e-02 5.875715e-02 6.867771e-02 8.879494e-02 1.174417e-01 1.296085e-01 1.428209e-01 9.844872e-02 8.879222e-02 8.481267e-02 1.299648e-01 4.657888e-06
<GCONST> 3.843737e+01
<STATE> 6
<NUMMIXES> 8
<MIXTURE> 1 9.883892e-02
<MEAN> 39
 -1.335817e+00 7.806516e-01 -3.488449e+00 -1.885160e+00 -3.272025e+00 -2.926627e+00 -2.703292e+00 -3.666992e+00 -2.492776e+00 -2.530314e+00 -2.646492e+00 -8.040780e-01 9.595894e-01 3.786398e-01 5.141002e-01 5.900717e-01 5.819662e-01 7.373565e-01 5.819977e-01 6.241555e-01 6.965141e-01 4.902774e-01 4.959136e-01 4.082544e-01 2.977014e-01 -3.289892e-03 1.205309e-01 2.161354e-01 2.870678e-01 2.033430e-01 2.875910e-01 2.357763e-01 2.785616e-01 2.816776e-01 2.749671e-01 2.578827e-01 1.824054e-01 1.464824e-01 -6.036026e-04
<VARIANCE> 39
 4.253326e+00 1.237558e+01 8.542036e+00 8.124151e+00 1.456308e+01 8.062894e+00 9.102073e+00 1.069549e+01 1.272889e+01 1.029774e+01 2.021182e+01 1.512384e+01 1.677247e-03 1.340615e-01 2.656008e-01 3.948120e-01 3.900462e-01 7.249331e-01 4.654424e-01 6.506001e-01 8.344249e-01 6.464130e-01 4.898078e-01 6.008822e-01 6.025276e-01 3.754082e-05 2.398459e-02 6.602442e-02 1.032513e-01 8.811364e-02 1.637555e-01 9.925952e-02 1.311784e-01 1.619751e-01 1.193196e-01 1.057591e-01 1.394099e-01 1.159709e-01 3.730629e-06
<GCONST> 3.405788e+01
<MIXTURE> 2 1.407268e-01
<MEAN> 39
 2.317309e-01 8.304825e+00 -1.604938e+00 -6.080271e-01 -3.180695e+00 -3.131641e+00 -2.604637e+00 -6.213771e-01 -1.323694e+00 -1.506713e+00 -6.152062e-01 -5.657501e-01 9.059454e-01 3.081130e-01 3.173258e-02 2.051071e-01 2.723902e-01 3.736074e-01 1.386998e-01 1.371626e-01 9.035904e-02 4.152794e-01 4.751482e-01 1.993067e-01 5.400414e-02 -5.486660e-03 1.443214e-02 -7.275730e-02 -1.461424e-02 -8.122987e-02 1.895487e-02 -6.491880e-02 -8.402450e-02 -6.483008e-02 -2.398564e-02 8.091246e-03 -1.334723e-02 9.436446e-04 -1.485474e-03
<VARIANCE> 39
 1.113730e+01 4.599728e+01 1.336677e+01 1.271574e+01 1.925194e+01 1.801165e+01 2.609116e+01 1.662660e+01 2.047046e+01 2.878630e+01 2.918621e+01 2.169700e+01 4.090386e-03 2.633843e-01 4.380850e-01 6.655271e-01 6.800641e-01 8.989408e-01 8.487772e-01 1.200430e+00 9.843465e-01 1.005370e+00 1.063848e+00 1.074258e+00 8.336594e-01 4.983276e-05 5.052182e-02 8.650398e-02 1.440955e-01 1.519956e-01 1.795340e-01 1.701902e-01 2.192427e-01 2.200480e-01 1.799348e-01 1.982417e-01 1.877557e-01 1.470250e-01 4.401299e-06
<GCONST> 5.426724e+01
<MIXTURE> 3 1.407271e-01
<MEAN> 39
 2.317299e-01 8.304826e+00 -1.604938e+00 -6.080260e-01 -3.180691e+00 -3.131639e+00 -2.604637e+00 -6.213761e-01 -1.323693e+00 -1.506712e+00 -6.152053e-01 -5.657496e-01 9.059454e-01 3.081131e-01 3.173251e-02 2.051071e-01 2.723899e-01 3.736072e-01 1.386999e-01 1.371627e-01 9.035908e-02 4.152794e-01 4.751478e-01 1.993066e-01 5.400418e-02 -5.486662e-03 1.443212e-02 -7.275734e-02 -1.461430e-02 -8.122998e-02 1.895470e-02 -6.491882e-02 -8.402440e-02 -6.483011e-02 -2.398575e-02 8.091304e-03 -1.334733e-02 9.435107e-04 -1.485473e-03
<VARIANCE> 39
 1.113730e+01 4.599733e+01 1.336676e+01 1.271575e+01 1.925192e+01 1.801165e+01 2.609116e+01 1.662659e+01 2.047046e+01 2.878628e+01 2.918620e+01 2.169698e+01 4.090387e-03 2.633843e-01 4.380845e-01 6.655262e-01 6.800639e-01 8.989406e-01 8.487769e-01 1.200429e+00 9.843464e-01 1.005368e+00 1.063848e+00 1.074258e+00 8.336587e-01 4.983270e-05 5.052181e-02 8.650395e-02 1.440956e-01 1.519956e-01 1.795339e-01 1.701901e-01 2.192427e-01 2.200478e-01 1.799348e-01 1.982415e-01 1.877555e-01 1.470249e-01 4.401297e-06
<GCONST> 5.426723e+01
<MIXTURE> 4 1.295125e-01
<MEAN> 39
 -5.666129e-01 1.188492e+01 -2.275358e+00 -8.748096e-01 -4.673138e+00 -4.783616e+00 -4.693343e+00 -1.052357e+00 -9.141662e-01 -1.100905e+00 3.614117e-01 6.460339e-01 8.950796e-01 -1.328699e-01 -2.546555e-01 -1.856012e-01 -4.702983e-01 5.766869e-03 -3.084564e-01 -4.513759e-02 -2.605378e-01 7.916587e-02 -1.329692e-01 4.012748e-02 -2.217208e-01 -1.490710e-03 -3.224829e-02 -1.289931e-01 -2.197861e-03 -2.390128e-01 5.806960e-02 -1.073133e-01 -2.746351e-03 -3.958717e-02 -2.737845e-02 -7.173823e-02 -5.238640e-02 -6.552838e-02 -2.164460e-03
<VARIANCE> 39
 1.379294e+01 4.672953e+01 2.070262e+01 1.904276e+01 2.076769e+01 2.812161e+01 3.539897e+01 2.489308e+01 2.901080e+01 3.624384e+01 4.586391e+01 5.221424e+01 6.295935e-03 2.388642e-01 3.691425e-01 6.321552e-01 7.050052e-01 9.658331e-01 9.481314e-01 1.076113e+00 1.021948e+00 1.190163e+00 1.084774e+00 1.325938e+00 9.831651e-01 6.351740e-05 5.412325e-02 9.544219e-02 1.572976e-01 1.604170e-01 2.090556e-01 2.230301e-01 2.511617e-01 2.526506e-01 2.018755e-01 2.442724e-01 2.227638e-01 2.217320e-01 9.762543e-06
<GCONST> 6.224907e+01
<MIXTURE> 5 1.407273e-01
<MEAN> 39
 2.317309e-01 8.304825e+00 -1.604938e+00 -6.080254e-01 -3.180691e+00 -3.131640e+00 -2.604635e+00 -6.213761e-01 -1.323693e+00 -1.506711e+00 -6.152054e-01 -5.657486e-01 9.059454e-01 3.081131e-01 3.173261e-02 2.051070e-01 2.723901e-01 3.736073e-01 1.386999e-01 1.371624e-01 9.035902e-02 4.152795e-01 4.751483e-01 1.993067e-01 5.400424e-02 -5.486660e-03 1.443209e-02 -7.275739e-02 -1.461436e-02 -8.123001e-02 1.895454e-02 -6.491885e-02 -8.402456e-02 -6.483015e-02 -2.398578e-02 8.091162e-03 -1.334738e-02 9.435003e-04 -1.485473e-03
<VARIANCE> 39
 1.113730e+01 4.599731e+01 1.336676e+01 1.271574e+01 1.925191e+01 1.801164e+01 2.609115e+01 1.662659e+01 2.047046e+01 2.878630e+01 2.918621e+01 2.169697e+01 4.090387e-03 2.633843e-01 4.380848e-01 6.655270e-01 6.800636e-01 8.989405e-01 8.487774e-01 1.200430e+00 9.843461e-01 1.005368e+00 1.063847e+00 1.074257e+00 8.336592e-01 4.983270e-05 5.052179e-02 8.650396e-02 1.440956e-01 1.519955e-01 1.795340e-01 1.701901e-01 2.192426e-01 2.200478e-01 1.799348e-01 1.982417e-01 1.877555e-01 1.470249e-01 4.401296e-06
<GCONST> 5.426724e+01
<MIXTURE> 6 1.295131e-01
<MEAN> 39
 -5.666119e-01 1.188494e+01 -2.275361e+00 -8.747994e-01 -4.673140e+00 -4.783614e+00 -4.693332e+00 -1.052352e+00 -9.141541e-01 -1.100890e+00 3.614349e-01 6.460670e-01 8.950796e-01 -1.328698e-01 -2.546542e-01 -1.855992e-01 -4.702972e-01 5.769401e-03 -3.084546e-01 -4.513502e-02 -2.605360e-01 7.916769e-02 -1.329664e-01 4.013010e-02 -2.217184e-01 -1.490697e-03 -3.224913e-02 -1.289944e-01 -2.199205e-03 -2.390147e-01 5.806849e-02 -1.073151e-01 -2.747793e-03 -3.958898e-02 -2.737943e-02 -7.173909e-02 -5.238788e-02 -6.552977e-02 -2.164461e-03
<VARIANCE> 39
 1.379298e+01 4.672942e+01 2.070265e+01 1.904279e+01 2.076773e+01 2.812162e+01 3.539906e+01 2.489304e+01 2.901083e+01 3.624393e+01 4.586415e+01 5.221476e+01 6.295941e-03 2.388646e-01 3.691434e-01 6.321550e-01 7.050051e-01 9.658331e-01 9.481313e-01 1.076113e+00 1.021948e+00 1.190161e+00 1.084773e+00 1.325936e+00 9.831675e-01 6.351748e-05 5.412351e-02 9.544239e-02 1.572981e-01 1.604171e-01 2.090562e-01 2.230307e-01 2.511625e-01 2.526508e-01 2.018756e-01 2.442731e-01 2.227640e-01 2.217330e-01 9.762570e-06
<GCONST> 6.224915e+01
<MIXTURE> 7 1.295117e-01
<MEAN> 39
 -5.666113e-01 1.188493e+01 -2.275360e+00 -8.748001e-01 -4.673138e+00 -4.783613e+00 -4.693330e+00 -1.052353e+00 -9.141572e-01 -1.100891e+00 3.614263e-01 6.460611e-01 8.950795e-01 -1.328699e-01 -2.546543e-01 -1.855993e-01 -4.702973e-01 5.769208e-03 -3.084548e-01 -4.513498e-02 -2.605363e-01 7.916734e-02 -1.329669e-01 4.012960e-02 -2.217188e-01 -1.490698e-03 -3.224903e-02 -1.289943e-01 -2.199026e-03 -2.390145e-01 5.806857e-02 -1.073150e-01 -2.747825e-03 -3.958879e-02 -2.737939e-02 -7.173906e-02 -5.238758e-02 -6.552960e-02 -2.164461e-03
<VARIANCE> 39
 1.379296e+01 4.672948e+01 2.070265e+01 1.904281e+01 2.076771e+01 2.812164e+01 3.539904e+01 2.489302e+01 2.901079e+01 3.624391e+01 4.586413e+01 5.221465e+01 6.295944e-03 2.388647e-01 3.691435e-01 6.321549e-01 7.050054e-01 9.658330e-01 9.481314e-01 1.076114e+00 1.021948e+00 1.190161e+00 1.084773e+00 1.325937e+00 9.831669e-01 6.351745e-05 5.412342e-02 9.544245e-02 1.572982e-01 1.604172e-01 2.090561e-01 2.230307e-01 2.511623e-01 2.526510e-01 2.018760e-01 2.442729e-01 2.227641e-01 2.217330e-01 9.762578e-06
<GCONST> 6.224913e+01
<MIXTURE> 8 9.044176e-02
<MEAN> 39
 3.415092e-01 9.348237e+00 -2.923380e+00 6.652446e-01 -3.600169e+00 -2.955185e+00 -3.955939e-01 -1.513682e+00 -1.504138e+00 3.778094e-01 -2.269969e+00 2.396573e+00 9.341588e-01 -4.011396e-01 -6.225477e-01 -8.039841e-01 -1.012332e+00 -7.147350e-01 -9.892302e-01 -6.570077e-01 -1.018600e+00 -5.545382e-01 -6.668020e-01 -5.158939e-01 -7.067643e-01 -6.962642e-04 -1.669687e-01 -2.350361e-01 -2.233023e-01 -3.754225e-01 -2.113649e-01 -3.966888e-01 -2.629049e-01 -3.061370e-01 -2.329358e-01 -3.332794e-01 -1.914939e-01 -2.721077e-01 -1.021039e-03
<VARIANCE> 39
 9.576288e+00 5.947437e+01 1.266283e+01 1.096157e+01 1.705415e+01 2.998684e+01 8.430354e+00 1.861613e+01 1.415626e+01 1.087832e+01 2.262100e+01 2.157407e+01 3.425805e-03 1.568085e-01 3.126154e-01 2.618286e-01 5.016208e-01 4.740412e-01 7.149103e-01 6.894666e-01 6.349958e-01 6.650220e-01 8.160885e-01 1.142214e+00 8.517749e-01 3.754082e-05 3.327498e-02 6.139360e-02 9.352323e-02 9.546342e-02 1.014924e-01 1.295412e-01 1.179032e-01 1.508368e-01 1.147501e-01 1.271263e-01 1.608064e-01 1.247912e-01 3.730629e-06
<GCONST> 4.210867e+01
<STATE> 7
<NUMMIXES> 8
<MIXTURE> 1 4.719862e-02
<MEAN> 39
 -1.766176e+00 9.776838e+00 -1.256212e+00 -2.292780e+00 -5.020231e+00 -4.110909e+00 3.595317e+00 5.616314e+00 1.436495e+01 1.160758e+01 7.965303e+00 1.055614e+00 8.984401e-01 7.290950e-02 5.478626e-01 3.181732e-01 9.791002e-02 6.373602e-01 2.697454e-01 3.665774e-01 3.755941e-02 4.931062e-01 9.177212e-01 4.879611e-01 -4.428266e-02 -3.994612e-03 4.596774e-02 -1.275642e-01 -3.744676e-02 -1.574410e-01 9.648779e-02 9.131255e-02 -1.289316e-02 -1.425332e-01 -1.579680e-01 1.562410e-01 1.303084e-01 2.047346e-01 -2.615349e-03
<VARIANCE> 39
 1.445149e+01 2.938732e+01 1.235472e+01 3.206005e+01 1.319569e+01 1.413172e+01 3.588344e+01 5.255509e+01 7.841357e+01 8.784934e+01 4.425354e+01 5.499861e+01 1.851618e-02 1.097103e+00 8.642216e-01 1.138749e+00 9.684148e-01 2.405390e+00 1.512589e+00 6.381416e-01 1.764757e+00 1.645005e+00 1.720904e+00 5.285783e-01 1.718120e+00 1.777684e-04 1.671877e-01 1.739092e-01 2.121255e-01 2.042387e-01 2.502315e-01 2.459407e-01 2.115778e-01 2.281911e-01 2.527497e-01 2.008957e-01 1.308958e-01 1.676816e-01 2.285103e-05
<GCONST> 7.290903e+01
<MIXTURE> 2 1.789241e-01
<MEAN> 39
 -9.508870e-01 1.378629e+01 -1.093173e+00 -2.516901e+00 -4.630460e+00 -5.528668e+00 -7.760105e+00 -5.967599e-01 -9.234036e-01 -2.803733e+00 1.810149e+00 -2.797832e+00 8.635987e-01 1.785930e-01 -3.513612e-01 2.478665e-01 -4.800386e-01 5.722129e-01 -1.680088e-01 3.418015e-01 8.501071e-02 4.371438e-01 2.963593e-01 -5.690227e-02 1.281064e-01 -7.358717e-03 1.489187e-01 -1.897494e-01 1.952862e-01 -7.814116e-02 2.039780e-01 1.219695e-01 2.354804e-01 1.104396e-01 2.194812e-02 8.067178e-02 -1.356016e-01 1.031426e-01 -4.429262e-03
<VARIANCE> 39
 1.281320e+01 4.112097e+01 2.069559e+01 1.938518e+01 1.858219e+01 2.523892e+01 3.284729e+01 2.153355e+01 2.615099e+01 2.773276e+01 3.623745e+01 2.408822e+01 5.512948e-03 3.941587e-01 4.720696e-01 6.040676e-01 1.130040e+00 8.343550e-01 8.890384e-01 1.064180e+00 9.372268e-01 1.222009e+00 1.158252e+00 1.493481e+00 9.297006e-01 1.116242e-04 5.768464e-02 1.046483e-01 1.549821e-01 1.789110e-01 1.690205e-01 1.836693e-01 2.298990e-01 2.091576e-01 2.146537e-01 2.187789e-01 2.221661e-01 2.055804e-01 1.800392e-05
<GCONST> 6.174689e+01
<MIXTURE> 3 1.789248e-01
<MEAN> 39
 -9.508848e-01 1.378629e+01 -1.093176e+00 -2.516899e+00 -4.630460e+00 -5.528668e+00 -7.760103e+00 -5.967615e-01 -9.234075e-01 -2.803729e+00 1.810145e+00 -2.797828e+00 8.635987e-01 1.785929e-01 -3.513608e-01 2.478672e-01 -4.800382e-01 5.722122e-01 -1.680089e-01 3.418014e-01 8.501071e-02 4.371438e-01 2.963588e-01 -5.690162e-02 1.281061e-01 -7.358727e-03 1.489186e-01 -1.897492e-01 1.952864e-01 -7.814108e-02 2.039780e-01 1.219696e-01 2.354804e-01 1.104396e-01 2.194823e-02 8.067156e-02 -1.356012e-01 1.031424e-01 -4.429266e-03
<VARIANCE> 39
 1.281322e+01 4.112097e+01 2.069558e+01 1.938519e+01 1.858219e+01 2.523895e+01 3.284729e+01 2.153355e+01 2.615099e+01 2.773277e+01 3.623745e+01 2.408825e+01 5.512945e-03 3.941585e-01 4.720694e-01 6.040670e-01 1.130040e+00 8.343549e-01 8.890377e-01 1.064179e+00 9.372259e-01 1.222008e+00 1.158251e+00 1.493479e+00 9.296995e-01 1.116242e-04 5.768464e-02 1.046483e-01 1.549821e-01 1.789110e-01 1.690205e-01 1.836693e-01 2.298990e-01 2.091575e-01 2.146539e-01 2.187788e-01 2.221662e-01 2.055803e-01 1.800392e-05
<GCONST> 6.174689e+01
<MIXTURE> 4 1.185859e-01
<MEAN> 39
 -7.353468e-01 1.224820e+01 -4.557965e+00 -1.359235e+00 -5.977551e+00 -7.190288e+00 -2.722047e+00 -2.792135e+00 -1.655527e+00 -2.899835e-01 -1.147215e+00 3.921621e+00 8.899993e-01 -2.593815e-01 -4.744126e-01 -1.094928e-02 -9.157450e-01 2.642863e-01 -6.200099e-01 -6.867635e-02 -3.960600e-01 -3.199442e-02 -2.789076e-01 1.750073e-01 -4.094587e-01 -5.581517e-03 9.607580e-02 -1.950035e-01 2.741313e-01 -2.167605e-01 2.744836e-01 3.584554e-02 -5.210066e-02 7.971463e-02 -2.654168e-02 -2.506938e-02 3.386531e-02 -2.135830e-01 -4.673840e-03
<VARIANCE> 39
 1.964113e+01 3.125257e+01 2.113834e+01 2.476622e+01 2.278514e+01 2.743501e+01 2.623684e+01 2.269210e+01 2.845816e+01 3.613472e+01 6.761477e+01 8.391844e+01 5.441106e-03 3.921272e-01 4.433967e-01 8.910373e-01 9.435790e-01 1.169962e+00 1.165349e+00 1.895583e+00 1.341050e+00 1.437957e+00 1.511889e+00 1.441572e+00 1.660836e+00 7.636624e-05 7.700384e-02 1.125189e-01 1.747153e-01 2.477625e-01 2.644798e-01 2.504070e-01 3.582626e-01 2.951236e-01 2.812128e-01 3.065471e-01 3.971726e-01 3.810748e-01 1.465428e-05
<GCONST> 7.072006e+01
<MIXTURE> 5 1.789245e-01
<MEAN> 39
 -9.508820e-01 1.378628e+01 -1.093171e+00 -2.516896e+00 -4.630456e+00 -5.528664e+00 -7.760105e+00 -5.967593e-01 -9.233997e-01 -2.803728e+00 1.810150e+00 -2.797826e+00 8.635986e-01 1.785934e-01 -3.513608e-01 2.478659e-01 -4.800378e-01 5.722125e-01 -1.680088e-01 3.418016e-01 8.501094e-02 4.371433e-01 2.963596e-01 -5.690246e-02 1.281064e-01 -7.358724e-03 1.489184e-01 -1.897493e-01 1.952856e-01 -7.814105e-02 2.039779e-01 1.219691e-01 2.354805e-01 1.104394e-01 2.194790e-02 8.067149e-02 -1.356018e-01 1.031421e-01 -4.429260e-03
<VARIANCE> 39
 1.281323e+01 4.112101e+01 2.069559e+01 1.938519e+01 1.858220e+01 2.523897e+01 3.284731e+01 2.153355e+01 2.615100e+01 2.773280e+01 3.623742e+01 2.408823e+01 5.512949e-03 3.941594e-01 4.720698e-01 6.040686e-01 1.130042e+00 8.343565e-01 8.890397e-01 1.064181e+00 9.372281e-01 1.222009e+00 1.158252e+00 1.493481e+00 9.297003e-01 1.116244e-04 5.768473e-02 1.046483e-01 1.549824e-01 1.789111e-01 1.690206e-01 1.836696e-01 2.298990e-01 2.091578e-01 2.146540e-01 2.187790e-01 2.221662e-01 2.055806e-01 1.800395e-05
<GCONST> 6.174693e+01
<MIXTURE> 6 1.185870e-01
<MEAN> 39
 -7.353448e-01 1.224820e+01 -4.557964e+00 -1.359236e+00 -5.977553e+00 -7.190291e+00 -2.722050e+00 -2.792137e+00 -1.655531e+00 -2.899947e-01 -1.147234e+00 3.921596e+00 8.899991e-01 -2.593814e-01 -4.744127e-01 -1.095016e-02 -9.157453e-01 2.642858e-01 -6.200106e-01 -6.867656e-02 -3.960608e-01 -3.199475e-02 -2.789089e-01 1.750075e-01 -4.094587e-01 -5.581522e-03 9.607592e-02 -1.950033e-01 2.741316e-01 -2.167602e-01 2.744839e-01 3.584608e-02 -5.210012e-02 7.971519e-02 -2.654126e-02 -2.506864e-02 3.386668e-02 -2.135812e-01 -4.673833e-03
<VARIANCE> 39
 1.964114e+01 3.125259e+01 2.113836e+01 2.476622e+01 2.278515e+01 2.743503e+01 2.623683e+01 2.269212e+01 2.845814e+01 3.613473e+01 6.761464e+01 8.391829e+01 5.441115e-03 3.921269e-01 4.433971e-01 8.910393e-01 9.435802e-01 1.169962e+00 1.165350e+00 1.895584e+00 1.341052e+00 1.437957e+00 1.511891e+00 1.441574e+00 1.660836e+00 7.636621e-05 7.700372e-02 1.125190e-01 1.747153e-01 2.477626e-01 2.644796e-01 2.504071e-01 3.582628e-01 2.951237e-01 2.812133e-01 3.065473e-01 3.971723e-01 3.810742e-01 1.465427e-05
<GCONST> 7.072008e+01
<MIXTURE> 7 1.185870e-01
<MEAN> 39
 -7.353448e-01 1.224820e+01 -4.557964e+00 -1.359236e+00 -5.977553e+00 -7.190291e+00 -2.722050e+00 -2.792137e+00 -1.655531e+00 -2.899947e-01 -1.147234e+00 3.921596e+00 8.899991e-01 -2.593814e-01 -4.744127e-01 -1.095016e-02 -9.157453e-01 2.642858e-01 -6.200106e-01 -6.867656e-02 -3.960608e-01 -3.199475e-02 -2.789089e-01 1.750075e-01 -4.094587e-01 -5.581522e-03 9.607592e-02 -1.950033e-01 2.741316e-01 -2.167602e-01 2.744839e-01 3.584608e-02 -5.210012e-02 7.971519e-02 -2.654126e-02 -2.506864e-02 3.386668e-02 -2.135812e-01 -4.673833e-03
<VARIANCE> 39
 1.964114e+01 3.125259e+01 2.113836e+01 2.476622e+01 2.278515e+01 2.743503e+01 2.623683e+01 2.269212e+01 2.845814e+01 3.613473e+01 6.761464e+01 8.391829e+01 5.441115e-03 3.921269e-01 4.433971e-01 8.910393e-01 9.435802e-01 1.169962e+00 1.165350e+00 1.895584e+00 1.341052e+00 1.437957e+00 1.511891e+00 1.441574e+00 1.660836e+00 7.636621e-05 7.700372e-02 1.125190e-01 1.747153e-01 2.477626e-01 2.644796e-01 2.504071e-01 3.582628e-01 2.951237e-01 2.812133e-01 3.065473e-01 3.971723e-01 3.810742e-01 1.465427e-05
<GCONST> 7.072008e+01
<MIXTURE> 8 6.026765e-02
<MEAN> 39
 -3.432661e-01 1.471055e+01 -7.871625e+00 -9.540898e-01 -6.841553e+00 -7.809792e+00 -2.139484e+00 -3.982656e+00 -2.519383e+00 -1.461442e+00 -4.373294e+00 2.384665e+00 8.969629e-01 -9.509696e-01 -9.758199e-01 -6.815475e-01 -1.943842e+00 -3.680747e-01 -2.045816e+00 -1.765315e-01 -1.353463e+00 -4.703256e-01 -1.086443e+00 -5.339964e-01 -1.337953e+00 1.942821e-03 3.492928e-02 -4.148187e-01 4.117475e-01 -5.093986e-01 1.996363e-01 -2.213872e-01 5.094365e-02 1.292520e-01 -5.685520e-03 -9.659631e-02 -5.700559e-03 -2.699231e-01 -2.856639e-03
<VARIANCE> 39
 1.331392e+01 2.492003e+01 1.730578e+01 1.414328e+01 1.942774e+01 3.463555e+01 1.632810e+01 2.937017e+01 2.791156e+01 2.377711e+01 4.257309e+01 7.812283e+01 3.383640e-03 1.791243e-01 2.272676e-01 3.857645e-01 6.211241e-01 1.401730e+00 4.756043e-01 7.068166e-01 9.455236e-01 1.104397e+00 8.169568e-01 1.281797e+00 1.176764e+00 4.718056e-05 6.821433e-02 1.461447e-01 2.547505e-01 2.190573e-01 2.709853e-01 2.931405e-01 3.852027e-01 4.323021e-01 2.592953e-01 3.770748e-01 3.058326e-01 5.544236e-01 5.388792e-06
<GCONST> 6.144260e+01
<STATE> 8
<NUMMIXES> 8
<MIXTURE> 1 3.847557e-02
<MEAN> 39
 -3.517928e+00 8.552645e+00 -8.024585e+00 -2.603590e+00 -1.062795e+01 -8.807972e+00 -3.101398e+00 -5.232208e+00 2.249729e+00 3.643519e+00 6.794556e+00 7.146472e+00 9.089095e-01 6.025245e-01 4.627346e-01 5.981376e-01 2.116617e-01 1.322008e+00 7.356606e-01 1.094999e+00 4.633760e-01 1.196770e+00 1.405488e+00 8.292213e-01 2.330819e-02 -5.714185e-03 3.159356e-01 2.214795e-01 5.939488e-01 1.275308e-01 7.350052e-01 4.565300e-01 4.727608e-01 4.911068e-01 2.782170e-01 7.763287e-02 -1.298886e-01 1.065170e-01 -3.484749e-03
<VARIANCE> 39
 1.956942e+01 2.570734e+01 1.351393e+01 1.428486e+01 4.272312e+01 2.925355e+01 3.059436e+01 5.790921e+01 1.101491e+02 1.213945e+02 1.653705e+02 9.681282e+01 6.391047e-03 1.012226e+00 4.765409e-01 9.551457e-01 7.089576e-01 1.684438e+00 2.289489e+00 3.004636e+00 2.036183e+00 2.398229e+00 2.710417e+00 2.691287e+00 2.042051e+00 1.190992e-04 8.567657e-02 1.322212e-01 1.898227e-01 1.935202e-01 1.742563e-01 2.356091e-01 3.144201e-01 4.800547e-01 6.403326e-01 6.877235e-01 3.655264e-01 2.484506e-01 1.654421e-05
<GCONST> 8.138592e+01
<MIXTURE> 2 1.632620e-01
<MEAN> 39
 -4.580004e-01 1.269268e+01 -3.060488e+00 -3.419848e+00 -5.332236e+00 -7.752583e+00 -6.249896e+00 -1.778518e+00 -1.540275e+00 -3.112077e+00 -1.596654e+00 -2.673410e+00 8.482143e-01 3.627709e-01 -4.174803e-01 4.693954e-01 -5.101407e-01 9.561545e-01 4.352994e-02 6.718140e-01 3.323247e-01 4.944929e-01 2.698499e-01 2.866410e-01 7.208404e-02 -1.222361e-02 2.327374e-01 -8.627158e-02 3.642151e-01 2.245398e-01 3.235889e-01 4.081518e-01 2.660002e-01 2.202510e-01 5.389519e-02 1.962960e-01 9.767900e-02 1.630125e-01 -5.987724e-03
<VARIANCE> 39
 1.736777e+01 3.780110e+01 2.972498e+01 2.700336e+01 2.205355e+01 3.357461e+01 3.246340e+01 3.100262e+01 3.348066e+01 2.981249e+01 4.721969e+01 3.300816e+01 6.994809e-03 6.989504e-01 7.074664e-01 1.319581e+00 1.863345e+00 1.238691e+00 1.723765e+00 1.901646e+00 1.532820e+00 1.683085e+00 1.912420e+00 2.337672e+00 1.937660e+00 1.820305e-04 1.009390e-01 1.295796e-01 2.403643e-01 2.437571e-01 2.480656e-01 2.958116e-01 3.091112e-01 3.931048e-01 3.777813e-01 3.215402e-01 3.658116e-01 2.738081e-01 3.499622e-05
<GCONST> 7.719756e+01
<MIXTURE> 3 1.632612e-01
<MEAN> 39
 -4.580038e-01 1.269269e+01 -3.060494e+00 -3.419855e+00 -5.332242e+00 -7.752599e+00 -6.249896e+00 -1.778524e+00 -1.540285e+00 -3.112080e+00 -1.596664e+00 -2.673407e+00 8.482145e-01 3.627699e-01 -4.174802e-01 4.693972e-01 -5.101436e-01 9.561560e-01 4.352945e-02 6.718155e-01 3.323249e-01 4.944930e-01 2.698492e-01 2.866415e-01 7.208179e-02 -1.222363e-02 2.327381e-01 -8.627191e-02 3.642161e-01 2.245396e-01 3.235893e-01 4.081529e-01 2.660003e-01 2.202517e-01 5.389566e-02 1.962964e-01 9.767936e-02 1.630123e-01 -5.987729e-03
<VARIANCE> 39
 1.736776e+01 3.780097e+01 2.972495e+01 2.700325e+01 2.205354e+01 3.357446e+01 3.246334e+01 3.100265e+01 3.348067e+01 2.981246e+01 4.721972e+01 3.300817e+01 6.994763e-03 6.989504e-01 7.074669e-01 1.319578e+00 1.863346e+00 1.238692e+00 1.723761e+00 1.901646e+00 1.532819e+00 1.683086e+00 1.912421e+00 2.337672e+00 1.937660e+00 1.820285e-04 1.009389e-01 1.295795e-01 2.403643e-01 2.437565e-01 2.480657e-01 2.958113e-01 3.091109e-01 3.931057e-01 3.777812e-01 3.215404e-01 3.658113e-01 2.738081e-01 3.499597e-05
<GCONST> 7.719753e+01
<MIXTURE> 4 1.417019e-01
<MEAN> 39
 2.880862e-01 1.226485e+01 -3.616374e+00 -1.727628e+00 -3.135406e+00 -6.369071e+00 -3.547854e+00 -2.217001e+00 1.326358e+00 3.548498e-01 1.187093e+00 2.817303e+00 8.695530e-01 7.120086e-02 -8.577082e-01 5.489466e-01 -9.707188e-01 6.587135e-01 -4.594890e-01 7.685982e-02 6.214007e-02 -1.778660e-01 -3.447025e-03 -2.122886e-01 -2.335920e-01 -1.033283e-02 1.165424e-01 -2.505840e-01 3.302701e-01 -2.287673e-02 -3.092347e-02 2.253347e-01 -6.238578e-02 1.154069e-01 -2.032481e-01 -1.759883e-01 -2.007938e-01 -2.439114e-01 -6.349470e-03
<VARIANCE> 39
 2.395372e+01 3.182149e+01 2.686219e+01 2.325911e+01 2.478437e+01 2.274015e+01 3.464442e+01 2.312156e+01 3.045094e+01 4.652651e+01 6.902369e+01 6.868967e+01 6.580111e-03 5.845453e-01 7.145808e-01 1.110772e+00 2.257395e+00 1.804667e+00 1.510257e+00 2.024033e+00 1.900516e+00 1.796087e+00 2.081377e+00 2.218519e+00 2.293186e+00 1.460368e-04 1.037110e-01 1.446212e-01 2.126280e-01 2.165457e-01 2.853921e-01 2.915431e-01 3.569346e-01 2.699865e-01 2.990378e-01 3.420051e-01 3.737643e-01 3.681415e-01 2.764803e-05
<GCONST> 7.811406e+01
<MIXTURE> 5 1.632591e-01
<MEAN> 39
 -4.579993e-01 1.269269e+01 -3.060502e+00 -3.419849e+00 -5.332244e+00 -7.752597e+00 -6.249893e+00 -1.778527e+00 -1.540280e+00 -3.112081e+00 -1.596670e+00 -2.673407e+00 8.482144e-01 3.627700e-01 -4.174805e-01 4.693956e-01 -5.101430e-01 9.561564e-01 4.352875e-02 6.718149e-01 3.323250e-01 4.944936e-01 2.698496e-01 2.866430e-01 7.208283e-02 -1.222361e-02 2.327378e-01 -8.627182e-02 3.642161e-01 2.245393e-01 3.235896e-01 4.081528e-01 2.660003e-01 2.202521e-01 5.389584e-02 1.962968e-01 9.767973e-02 1.630125e-01 -5.987721e-03
<VARIANCE> 39
 1.736780e+01 3.780105e+01 2.972501e+01 2.700334e+01 2.205356e+01 3.357462e+01 3.246338e+01 3.100269e+01 3.348069e+01 2.981253e+01 4.721977e+01 3.300823e+01 6.994784e-03 6.989518e-01 7.074668e-01 1.319583e+00 1.863349e+00 1.238695e+00 1.723767e+00 1.901650e+00 1.532823e+00 1.683088e+00 1.912424e+00 2.337679e+00 1.937665e+00 1.820299e-04 1.009390e-01 1.295799e-01 2.403647e-01 2.437571e-01 2.480661e-01 2.958124e-01 3.091117e-01 3.931061e-01 3.777820e-01 3.215412e-01 3.658123e-01 2.738088e-01 3.499615e-05
<GCONST> 7.719759e+01
<MIXTURE> 6 1.417024e-01
<MEAN> 39
 2.880725e-01 1.226486e+01 -3.616365e+00 -1.727637e+00 -3.135406e+00 -6.369074e+00 -3.547857e+00 -2.217000e+00 1.326356e+00 3.548468e-01 1.187109e+00 2.817305e+00 8.695530e-01 7.120068e-02 -8.577087e-01 5.489468e-01 -9.707209e-01 6.587142e-01 -4.594885e-01 7.686129e-02 6.214065e-02 -1.778656e-01 -3.445457e-03 -2.122896e-01 -2.335924e-01 -1.033284e-02 1.165431e-01 -2.505844e-01 3.302699e-01 -2.287660e-02 -3.092346e-02 2.253357e-01 -6.238583e-02 1.154073e-01 -2.032479e-01 -1.759880e-01 -2.007948e-01 -2.439117e-01 -6.349475e-03
<VARIANCE> 39
 2.395365e+01 3.182146e+01 2.686217e+01 2.325907e+01 2.478433e+01 2.274015e+01 3.464446e+01 2.312150e+01 3.045089e+01 4.652644e+01 6.902351e+01 6.868968e+01 6.580098e-03 5.845445e-01 7.145801e-01 1.110771e+00 2.257391e+00 1.804666e+00 1.510254e+00 2.024034e+00 1.900512e+00 1.796083e+00 2.081373e+00 2.218515e+00 2.293182e+00 1.460368e-04 1.037109e-01 1.446212e-01 2.126278e-01 2.165456e-01 2.853919e-01 2.915424e-01 3.569348e-01 2.699861e-01 2.990372e-01 3.420047e-01 3.737639e-01 3.681410e-01 2.764803e-05
<GCONST> 7.811403e+01
<MIXTURE> 7 1.417030e-01
<MEAN> 39
 2.880816e-01 1.226486e+01 -3.616364e+00 -1.727632e+00 -3.135403e+00 -6.369071e+00 -3.547860e+00 -2.216998e+00 1.326353e+00 3.548419e-01 1.187091e+00 2.817292e+00 8.695530e-01 7.120103e-02 -8.577086e-01 5.489466e-01 -9.707197e-01 6.587136e-01 -4.594881e-01 7.686065e-02 6.213975e-02 -1.778656e-01 -3.446428e-03 -2.122888e-01 -2.335923e-01 -1.033284e-02 1.165426e-01 -2.505842e-01 3.302698e-01 -2.287659e-02 -3.092352e-02 2.253353e-01 -6.238545e-02 1.154069e-01 -2.032479e-01 -1.759877e-01 -2.007938e-01 -2.439110e-01 -6.349471e-03
<VARIANCE> 39
 2.395366e+01 3.182146e+01 2.686216e+01 2.325908e+01 2.478431e+01 2.274015e+01 3.464442e+01 2.312152e+01 3.045091e+01 4.652639e+01 6.902341e+01 6.868949e+01 6.580100e-03 5.845443e-01 7.145791e-01 1.110771e+00 2.257391e+00 1.804665e+00 1.510254e+00 2.024032e+00 1.900514e+00 1.796084e+00 2.081374e+00 2.218513e+00 2.293182e+00 1.460367e-04 1.037108e-01 1.446209e-01 2.126279e-01 2.165455e-01 2.853915e-01 2.915424e-01 3.569345e-01 2.699863e-01 2.990372e-01 3.420042e-01 3.737635e-01 3.681404e-01 2.764799e-05
<GCONST> 7.811403e+01
<MIXTURE> 8 4.663381e-02
<MEAN> 39
 -3.925143e+00 1.231799e+01 -7.508758e+00 -2.147537e+00 -6.429980e+00 -8.031846e+00 1.862363e+00 -1.437119e+00 6.270391e+00 6.863853e+00 7.273789e+00 1.004540e+01 9.092364e-01 -1.136405e+00 -1.364650e+00 -3.229956e-01 -2.038610e+00 3.757750e-01 -1.601151e+00 8.206649e-02 -6.106576e-01 -5.124997e-01 -5.176989e-01 -5.897521e-01 -1.245186e+00 -1.124436e-02 3.974847e-01 -4.672688e-01 4.583510e-01 -1.721778e-01 9.810246e-02 3.446232e-01 -2.154429e-01 3.368284e-01 -3.751142e-01 -4.882346e-01 -5.799592e-01 -6.495046e-01 -5.653847e-03
<VARIANCE> 39
 2.458674e+01 1.204632e+01 2.778258e+01 1.865322e+01 2.712090e+01 3.359947e+01 3.276942e+01 5.713343e+01 9.396419e+01 1.138674e+02 8.065126e+01 8.395593e+01 3.513836e-03 7.449089e-01 8.934269e-01 2.312182e+00 2.050138e+00 3.445385e+00 2.371935e+00 2.457247e+00 2.557578e+00 2.055244e+00 3.315101e+00 2.187539e+00 2.360739e+00 2.449243e-04 1.669976e-01 2.012543e-01 3.242536e-01 1.509236e-01 3.528046e-01 3.758458e-01 5.310223e-01 5.706557e-01 6.754197e-01 1.034860e+00 3.976535e-01 7.066951e-01 2.938776e-05
<GCONST> 8.906255e+01
<STATE> 9
<NUMMIXES> 8
<MIXTURE> 1 4.236923e-02
<MEAN> 39
 -3.154588e+00 1.388271e+01 -5.510092e+00 -5.984394e+00 -4.579866e+00 -1.042288e+01 2.191844e+00 -1.566525e+00 7.479329e-01 -2.246766e+00 -2.165370e+00 9.625746e-02 8.231956e-01 3.061855e-01 -9.588951e-01 1.259688e+00 -2.330681e+00 2.390829e+00 5.287334e-01 2.468287e+00 3.310656e+00 2.194456e+00 1.676145e+00 1.545840e+00 -1.236267e-01 -1.008334e-02 3.138748e-01 -7.134096e-01 5.032162e-01 2.018301e-01 7.057183e-02 1.171740e+00 -1.352106e-01 4.379975e-01 -1.671287e-02 2.072811e-01 4.263936e-02 1.035500e-01 -5.226118e-03
<VARIANCE> 39
 9.059278e+00 6.217820e+01 9.799980e+00 3.440927e+01 2.082439e+01 6.487728e+01 3.721867e+01 3.699468e+01 3.413328e+01 1.910105e+01 2.607942e+01 3.453341e+01 1.135684e-02 8.188412e-01 1.557281e+00 2.678835e+00 3.002688e+00 1.494469e+00 1.806851e+00 3.728161e+00 2.254230e+00 3.447639e+00 3.308923e+00 2.836837e+00 2.795412e+00 6.747330e-04 2.084703e-01 4.282337e-01 1.525909e-01 3.576676e-01 8.673890e-01 5.832794e-01 6.950698e-01 3.696004e-01 6.987444e-01 4.901187e-01 3.725280e-01 4.059650e-01 6.987986e-05
<GCONST> 8.983305e+01
<MIXTURE> 2 1.694832e-01
<MEAN> 39
 -8.631810e-02 1.177954e+01 -1.121813e+00 -4.271576e+00 -3.629936e+00 -6.840411e+00 -5.496736e+00 -8.616764e-01 -1.112633e+00 -2.619141e+00 -5.407127e-01 -3.117379e+00 8.397654e-01 7.700375e-01 -5.989293e-01 1.164038e+00 -3.314658e-02 1.255222e+00 7.958201e-01 7.629166e-01 3.677743e-01 4.327281e-01 3.211163e-01 1.988797e-01 9.955654e-02 -2.432329e-02 1.115409e-01 -5.815479e-02 3.078861e-01 5.817267e-01 2.100163e-01 5.423860e-01 1.485174e-01 4.112358e-02 -7.066365e-02 8.283568e-02 2.573450e-02 2.029098e-01 -1.059595e-02
<VARIANCE> 39
 1.768897e+01 3.869797e+01 2.363677e+01 3.231305e+01 1.881768e+01 2.904577e+01 3.653033e+01 2.823552e+01 3.275731e+01 3.042530e+01 3.770363e+01 2.629401e+01 5.926372e-03 7.028472e-01 9.870387e-01 1.749159e+00 1.941997e+00 1.679209e+00 1.559366e+00 2.489369e+00 2.093788e+00 2.216778e+00 1.842999e+00 2.752220e+00 2.518505e+00 2.073051e-04 1.341840e-01 1.483227e-01 2.464762e-01 3.041216e-01 2.499300e-01 3.640358e-01 3.480939e-01 3.466942e-01 3.730603e-01 3.981806e-01 3.130153e-01 2.875866e-01 5.706806e-05
<GCONST> 7.998950e+01
<MIXTURE> 3 1.694829e-01
<MEAN> 39
 -8.631584e-02 1.177954e+01 -1.121816e+00 -4.271576e+00 -3.629936e+00 -6.840415e+00 -5.496737e+00 -8.616769e-01 -1.112634e+00 -2.619139e+00 -5.407158e-01 -3.117379e+00 8.397654e-01 7.700373e-01 -5.989291e-01 1.164039e+00 -3.314599e-02 1.255222e+00 7.958202e-01 7.629160e-01 3.677744e-01 4.327277e-01 3.211159e-01 1.988801e-01 9.955662e-02 -2.432329e-02 1.115408e-01 -5.815455e-02 3.078865e-01 5.817267e-01 2.100163e-01 5.423861e-01 1.485175e-01 4.112356e-02 -7.066357e-02 8.283557e-02 2.573469e-02 2.029099e-01 -1.059596e-02
<VARIANCE> 39
 1.768900e+01 3.869797e+01 2.363680e+01 3.231309e+01 1.881769e+01 2.904576e+01 3.653035e+01 2.823552e+01 3.275734e+01 3.042531e+01 3.770366e+01 2.629402e+01 5.926369e-03 7.028468e-01 9.870382e-01 1.749158e+00 1.941998e+00 1.679208e+00 1.559367e+00 2.489369e+00 2.093788e+00 2.216778e+00 1.842999e+00 2.752222e+00 2.518506e+00 2.073052e-04 1.341840e-01 1.483229e-01 2.464768e-01 3.041218e-01 2.499300e-01 3.640358e-01 3.480942e-01 3.466944e-01 3.730604e-01 3.981804e-01 3.130151e-01 2.875865e-01 5.706811e-05
<GCONST> 7.998952e+01
<MIXTURE> 4 1.238342e-01
<MEAN> 39
 -2.411531e-01 1.134037e+01 -1.652973e+00 -3.936487e+00 -2.349468e+00 -6.940639e+00 -3.738245e+00 -1.721786e+00 -2.166670e-01 -3.655938e-01 6.857988e-01 1.335544e+00 8.568691e-01 3.929226e-01 -1.186388e+00 1.107353e+00 -9.472675e-01 6.178061e-01 1.778353e-01 1.680038e-01 3.436323e-01 -2.867529e-01 6.117862e-02 -5.255193e-01 -5.215359e-01 -1.891138e-02 1.289250e-01 -2.440499e-01 2.962167e-01 4.606910e-01 -9.604785e-02 5.789005e-01 2.073453e-02 8.318629e-02 -9.703796e-02 -1.200111e-01 -1.663194e-01 -1.773811e-01 -8.862058e-03
<VARIANCE> 39
 1.937726e+01 3.615018e+01 2.321120e+01 3.069243e+01 1.909555e+01 2.451365e+01 3.288213e+01 2.733767e+01 2.433856e+01 2.823410e+01 3.794663e+01 3.847964e+01 7.816901e-03 6.737914e-01 1.287677e+00 1.734964e+00 2.714279e+00 1.859973e+00 1.537990e+00 2.491909e+00 2.508049e+00 2.015109e+00 2.363832e+00 2.543527e+00 2.899009e+00 2.232227e-04 1.445723e-01 1.782761e-01 1.946962e-01 2.632667e-01 3.232231e-01 3.358264e-01 3.864806e-01 3.760898e-01 2.987821e-01 3.099530e-01 3.466136e-01 3.127298e-01 5.471125e-05
<GCONST> 8.096436e+01
<MIXTURE> 5 1.694842e-01
<MEAN> 39
 -8.631706e-02 1.177954e+01 -1.121807e+00 -4.271578e+00 -3.629937e+00 -6.840408e+00 -5.496745e+00 -8.616778e-01 -1.112633e+00 -2.619143e+00 -5.407085e-01 -3.117383e+00 8.397654e-01 7.700374e-01 -5.989290e-01 1.164037e+00 -3.314434e-02 1.255222e+00 7.958217e-01 7.629166e-01 3.677740e-01 4.327282e-01 3.211158e-01 1.988793e-01 9.955794e-02 -2.432331e-02 1.115404e-01 -5.815447e-02 3.078855e-01 5.817268e-01 2.100166e-01 5.423857e-01 1.485185e-01 4.112399e-02 -7.066339e-02 8.283570e-02 2.573425e-02 2.029098e-01 -1.059596e-02
<VARIANCE> 39
 1.768898e+01 3.869798e+01 2.363680e+01 3.231313e+01 1.881769e+01 2.904576e+01 3.653038e+01 2.823553e+01 3.275737e+01 3.042533e+01 3.770369e+01 2.629401e+01 5.926368e-03 7.028483e-01 9.870385e-01 1.749159e+00 1.942000e+00 1.679207e+00 1.559371e+00 2.489372e+00 2.093788e+00 2.216780e+00 1.842999e+00 2.752225e+00 2.518510e+00 2.073056e-04 1.341840e-01 1.483228e-01 2.464769e-01 3.041224e-01 2.499300e-01 3.640358e-01 3.480943e-01 3.466944e-01 3.730606e-01 3.981810e-01 3.130156e-01 2.875864e-01 5.706821e-05
<GCONST> 7.998955e+01
<MIXTURE> 6 1.238341e-01
<MEAN> 39
 -2.411520e-01 1.134037e+01 -1.652973e+00 -3.936485e+00 -2.349467e+00 -6.940640e+00 -3.738245e+00 -1.721786e+00 -2.166698e-01 -3.655949e-01 6.857959e-01 1.335541e+00 8.568690e-01 3.929223e-01 -1.186388e+00 1.107353e+00 -9.472669e-01 6.178059e-01 1.778351e-01 1.680040e-01 3.436322e-01 -2.867529e-01 6.117900e-02 -5.255190e-01 -5.215357e-01 -1.891138e-02 1.289248e-01 -2.440499e-01 2.962166e-01 4.606909e-01 -9.604768e-02 5.789005e-01 2.073462e-02 8.318622e-02 -9.703773e-02 -1.200110e-01 -1.663192e-01 -1.773808e-01 -8.862059e-03
<VARIANCE> 39
 1.937725e+01 3.615014e+01 2.321120e+01 3.069242e+01 1.909555e+01 2.451364e+01 3.288211e+01 2.733765e+01 2.433853e+01 2.823405e+01 3.794662e+01 3.847963e+01 7.816893e-03 6.737910e-01 1.287675e+00 1.734963e+00 2.714279e+00 1.859971e+00 1.537990e+00 2.491908e+00 2.508048e+00 2.015109e+00 2.363830e+00 2.543523e+00 2.899004e+00 2.232226e-04 1.445722e-01 1.782760e-01 1.946960e-01 2.632666e-01 3.232232e-01 3.358261e-01 3.864806e-01 3.760895e-01 2.987821e-01 3.099528e-01 3.466134e-01 3.127295e-01 5.471125e-05
<GCONST> 8.096434e+01
<MIXTURE> 7 1.238340e-01
<MEAN> 39
 -2.411538e-01 1.134037e+01 -1.652972e+00 -3.936488e+00 -2.349468e+00 -6.940639e+00 -3.738247e+00 -1.721785e+00 -2.166697e-01 -3.655946e-01 6.857975e-01 1.335539e+00 8.568691e-01 3.929224e-01 -1.186388e+00 1.107353e+00 -9.472674e-01 6.178057e-01 1.778355e-01 1.680045e-01 3.436323e-01 -2.867527e-01 6.117891e-02 -5.255191e-01 -5.215352e-01 -1.891138e-02 1.289249e-01 -2.440499e-01 2.962167e-01 4.606912e-01 -9.604775e-02 5.789006e-01 2.073481e-02 8.318625e-02 -9.703773e-02 -1.200111e-01 -1.663193e-01 -1.773807e-01 -8.862060e-03
<VARIANCE> 39
 1.937723e+01 3.615015e+01 2.321120e+01 3.069242e+01 1.909552e+01 2.451364e+01 3.288211e+01 2.733767e+01 2.433856e+01 2.823405e+01 3.794661e+01 3.847961e+01 7.816895e-03 6.737909e-01 1.287675e+00 1.734962e+00 2.714277e+00 1.859971e+00 1.537989e+00 2.491906e+00 2.508047e+00 2.015109e+00 2.363830e+00 2.543523e+00 2.899004e+00 2.232227e-04 1.445721e-01 1.782760e-01 1.946960e-01 2.632665e-01 3.232231e-01 3.358262e-01 3.864805e-01 3.760894e-01 2.987821e-01 3.099526e-01 3.466133e-01 3.127295e-01 5.471125e-05
<GCONST> 8.096433e+01
<MIXTURE> 8 7.767772e-02
<MEAN> 39
 -5.266208e+00 9.706120e+00 -5.322612e+00 -5.974159e+00 -4.094076e+00 -9.827650e+00 4.462854e-01 -2.014080e+00 5.267165e+00 7.410307e+00 8.873969e+00 1.197559e+01 8.986347e-01 4.899781e-01 -1.465101e+00 1.279000e+00 -1.704276e+00 9.922851e-01 -2.549297e-01 -5.681371e-01 4.164355e-01 -1.259571e+00 -1.110966e+00 -1.940520e+00 -2.032439e+00 -2.076842e-02 5.461270e-01 -2.492568e-01 6.130548e-01 5.326093e-01 -1.554705e-01 8.665327e-01 -1.386799e-01 1.597735e-01 -2.811301e-01 -5.489988e-01 -4.478439e-01 -6.479509e-01 -1.183881e-02
<VARIANCE> 39
 2.436745e+01 1.452807e+01 3.983538e+01 1.153880e+01 3.950645e+01 3.143146e+01 3.917312e+01 4.880173e+01 6.455288e+01 9.270095e+01 4.353478e+01 9.233247e+01 4.106738e-03 1.047971e+00 1.532748e+00 1.871005e+00 3.293093e+00 2.227783e+00 2.134588e+00 2.346366e+00 2.262320e+00 3.342607e+00 6.688628e+00 5.336263e+00 4.388023e+00 3.561406e-04 2.031094e-01 3.974818e-01 3.975567e-01 2.052902e-01 9.324160e-01 3.401793e-01 7.190831e-01 4.859780e-01 4.331449e-01 5.335445e-01 3.498289e-01 7.083877e-01 1.330348e-04
<GCONST> 9.469200e+01
<STATE> 10
<NUMMIXES> 8
<MIXTURE> 1 5.379789e-02
<MEAN> 39
 -2.912833e+00 1.182127e+01 -5.031246e+00 -1.011887e+01 -2.271130e+00 -9.708748e+00 3.152444e+00 4.349767e+00 4.643046e+00 4.804841e+00 1.159384e+00 2.031323e+00 8.504628e-01 9.630106e-01 -1.751109e+00 1.854419e+00 -1.323513e+00 2.449847e+00 2.236763e+00 1.399049e+00 2.553318e+00 1.612087e-01 -7.109284e-02 1.252573e-01 -1.306958e+00 -3.628078e-02 1.989455e-01 -2.747816e-01 4.332733e-01 1.058063e+00 1.114874e-01 1.384876e+00 -1.381855e-01 -4.727251e-01 -3.646886e-01 -3.894097e-01 2.341802e-01 2.995404e-01 -1.725520e-02
<VARIANCE> 39
 7.724073e+00 3.712476e+01 1.643846e+01 2.960102e+01 2.875789e+01 1.726659e+01 3.150001e+01 3.824909e+01 7.737540e+01 8.407292e+01 6.541804e+01 9.308851e+01 5.725616e-03 1.582372e+00 2.240145e+00 2.153098e+00 2.520102e+00 3.024197e+00 3.576147e+00 7.036599e+00 6.699435e+00 5.151355e+00 6.020786e+00 6.167221e+00 6.089333e+00 3.492625e-04 2.166940e-01 6.593966e-01 1.739156e-01 6.091514e-01 7.404451e-01 2.092259e-01 6.960429e-01 6.430177e-01 1.278250e+00 1.014331e+00 7.043765e-01 1.013019e+00 2.103584e-04
<GCONST> 1.020445e+02
<MIXTURE> 2 1.799811e-01
<MEAN> 39
 1.437656e+00 1.065530e+01 2.751790e-01 -3.338007e+00 -2.049598e+00 -5.660239e+00 -4.411735e+00 -9.737514e-01 -6.875787e-01 -1.778962e+00 1.535177e-02 -1.887607e+00 8.116508e-01 8.350530e-01 -4.884926e-01 1.506271e+00 9.815815e-01 1.321960e+00 1.326316e+00 7.780610e-01 2.221318e-01 2.133812e-01 2.826636e-01 -3.321244e-02 -8.149565e-02 -4.025546e-02 -2.597932e-01 -8.642565e-02 1.106344e-01 6.338087e-01 1.082888e-01 4.604725e-01 1.124224e-01 5.602727e-02 -4.409699e-02 5.759538e-02 9.511852e-02 1.909910e-01 -1.480824e-02
<VARIANCE> 39
 1.661135e+01 3.685212e+01 2.409188e+01 3.637872e+01 1.974844e+01 2.796334e+01 3.451862e+01 3.123729e+01 3.243686e+01 3.148946e+01 3.129940e+01 3.287954e+01 5.826000e-03 9.773750e-01 8.974310e-01 2.146789e+00 1.679016e+00 1.780593e+00 1.836753e+00 2.871923e+00 2.523997e+00 2.473048e+00 2.117415e+00 3.142122e+00 3.087962e+00 3.539131e-04 1.341199e-01 2.158452e-01 2.794670e-01 3.950943e-01 2.651868e-01 4.088041e-01 4.092571e-01 3.965829e-01 3.812049e-01 4.252917e-01 3.667345e-01 3.759427e-01 1.148985e-04
<GCONST> 8.452745e+01
<MIXTURE> 3 1.799806e-01
<MEAN> 39
 1.437655e+00 1.065530e+01 2.751752e-01 -3.338012e+00 -2.049598e+00 -5.660244e+00 -4.411730e+00 -9.737498e-01 -6.875789e-01 -1.778959e+00 1.535008e-02 -1.887605e+00 8.116509e-01 8.350532e-01 -4.884929e-01 1.506273e+00 9.815813e-01 1.321960e+00 1.326316e+00 7.780600e-01 2.221321e-01 2.133819e-01 2.826637e-01 -3.321161e-02 -8.149578e-02 -4.025546e-02 -2.597931e-01 -8.642562e-02 1.106345e-01 6.338089e-01 1.082885e-01 4.604730e-01 1.124222e-01 5.602695e-02 -4.409708e-02 5.759512e-02 9.511845e-02 1.909911e-01 -1.480825e-02
<VARIANCE> 39
 1.661135e+01 3.685213e+01 2.409188e+01 3.637875e+01 1.974844e+01 2.796335e+01 3.451865e+01 3.123735e+01 3.243686e+01 3.148947e+01 3.129941e+01 3.287955e+01 5.825996e-03 9.773751e-01 8.974314e-01 2.146790e+00 1.679016e+00 1.780596e+00 1.836755e+00 2.871924e+00 2.523999e+00 2.473052e+00 2.117415e+00 3.142125e+00 3.087966e+00 3.539136e-04 1.341200e-01 2.158455e-01 2.794672e-01 3.950947e-01 2.651868e-01 4.088045e-01 4.092574e-01 3.965833e-01 3.812051e-01 4.252921e-01 3.667347e-01 3.759428e-01 1.148986e-04
<GCONST> 8.452748e+01
<MIXTURE> 4 1.189915e-01
<MEAN> 39
 -2.452236e-01 1.014619e+01 -5.432485e-03 -6.159989e+00 -1.863834e+00 -6.760097e+00 -3.890134e+00 -3.507140e-01 -2.450124e-01 -3.630555e-01 2.522535e-01 -3.055790e-01 8.329498e-01 6.870791e-01 -1.445509e+00 1.394493e+00 -3.001113e-01 2.333354e-01 1.206969e+00 2.597353e-01 5.024139e-01 -2.149032e-01 -3.408720e-02 -6.445872e-01 -2.748771e-01 -2.362262e-02 1.895624e-02 -1.826057e-01 7.214060e-03 7.886240e-01 -1.727158e-01 5.178431e-01 8.626211e-02 -6.670145e-02 -7.945781e-02 -1.131794e-01 -5.404352e-02 -1.111329e-02 -8.094686e-03
<VARIANCE> 39
 2.171594e+01 3.707418e+01 2.409256e+01 4.834675e+01 2.729714e+01 3.399380e+01 3.467571e+01 3.253475e+01 3.120120e+01 3.037469e+01 3.435230e+01 3.145563e+01 9.968182e-03 9.420207e-01 2.032144e+00 2.236207e+00 2.294611e+00 1.953567e+00 2.256235e+00 3.133789e+00 2.553807e+00 2.662663e+00 3.164362e+00 3.419810e+00 3.279948e+00 4.480122e-04 2.178202e-01 2.204060e-01 1.811289e-01 5.032600e-01 5.200168e-01 4.198909e-01 4.625193e-01 5.030792e-01 3.629889e-01 3.905528e-01 3.729651e-01 3.587833e-01 1.141215e-04
<GCONST> 8.975221e+01
<MIXTURE> 5 1.799806e-01
<MEAN> 39
 1.437654e+00 1.065530e+01 2.751753e-01 -3.338016e+00 -2.049596e+00 -5.660245e+00 -4.411728e+00 -9.737464e-01 -6.875760e-01 -1.778958e+00 1.535035e-02 -1.887607e+00 8.116509e-01 8.350533e-01 -4.884931e-01 1.506273e+00 9.815810e-01 1.321960e+00 1.326316e+00 7.780606e-01 2.221331e-01 2.133821e-01 2.826633e-01 -3.321197e-02 -8.149555e-02 -4.025546e-02 -2.597930e-01 -8.642554e-02 1.106343e-01 6.338093e-01 1.082883e-01 4.604730e-01 1.124218e-01 5.602680e-02 -4.409736e-02 5.759497e-02 9.511851e-02 1.909912e-01 -1.480825e-02
<VARIANCE> 39
 1.661135e+01 3.685216e+01 2.409190e+01 3.637878e+01 1.974845e+01 2.796336e+01 3.451865e+01 3.123735e+01 3.243686e+01 3.148948e+01 3.129941e+01 3.287956e+01 5.825999e-03 9.773753e-01 8.974317e-01 2.146791e+00 1.679018e+00 1.780596e+00 1.836756e+00 2.871924e+00 2.523999e+00 2.473053e+00 2.117416e+00 3.142126e+00 3.087967e+00 3.539138e-04 1.341200e-01 2.158456e-01 2.794674e-01 3.950950e-01 2.651868e-01 4.088045e-01 4.092574e-01 3.965832e-01 3.812051e-01 4.252921e-01 3.667348e-01 3.759431e-01 1.148987e-04
<GCONST> 8.452748e+01
<MIXTURE> 6 1.189909e-01
<MEAN> 39
 -2.452161e-01 1.014619e+01 -5.434458e-03 -6.159978e+00 -1.863837e+00 -6.760093e+00 -3.890133e+00 -3.507141e-01 -2.450119e-01 -3.630509e-01 2.522590e-01 -3.055749e-01 8.329496e-01 6.870794e-01 -1.445506e+00 1.394492e+00 -3.001086e-01 2.333369e-01 1.206968e+00 2.597355e-01 5.024123e-01 -2.149045e-01 -3.408837e-02 -6.445875e-01 -2.748785e-01 -2.362266e-02 1.895528e-02 -1.826055e-01 7.214327e-03 7.886233e-01 -1.727143e-01 5.178430e-01 8.626191e-02 -6.670141e-02 -7.945794e-02 -1.131796e-01 -5.404382e-02 -1.111349e-02 -8.094707e-03
<VARIANCE> 39
 2.171594e+01 3.707418e+01 2.409255e+01 4.834672e+01 2.729716e+01 3.399376e+01 3.467570e+01 3.253475e+01 3.120120e+01 3.037473e+01 3.435232e+01 3.145569e+01 9.968190e-03 9.420217e-01 2.032144e+00 2.236210e+00 2.294610e+00 1.953566e+00 2.256235e+00 3.133788e+00 2.553805e+00 2.662658e+00 3.164362e+00 3.419809e+00 3.279953e+00 4.480126e-04 2.178201e-01 2.204060e-01 1.811291e-01 5.032595e-01 5.200170e-01 4.198909e-01 4.625188e-01 5.030788e-01 3.629889e-01 3.905528e-01 3.729652e-01 3.587833e-01 1.141217e-04
<GCONST> 8.975221e+01
<MIXTURE> 7 1.189917e-01
<MEAN> 39
 -2.452228e-01 1.014619e+01 -5.432429e-03 -6.159991e+00 -1.863835e+00 -6.760098e+00 -3.890135e+00 -3.507156e-01 -2.450138e-01 -3.630562e-01 2.522537e-01 -3.055798e-01 8.329499e-01 6.870794e-01 -1.445509e+00 1.394493e+00 -3.001107e-01 2.333357e-01 1.206969e+00 2.597367e-01 5.024137e-01 -2.149040e-01 -3.408762e-02 -6.445883e-01 -2.748780e-01 -2.362264e-02 1.895602e-02 -1.826059e-01 7.214133e-03 7.886245e-01 -1.727153e-01 5.178435e-01 8.626213e-02 -6.670108e-02 -7.945800e-02 -1.131792e-01 -5.404338e-02 -1.111330e-02 -8.094701e-03
<VARIANCE> 39
 2.171593e+01 3.707415e+01 2.409256e+01 4.834669e+01 2.729713e+01 3.399374e+01 3.467567e+01 3.253475e+01 3.120116e+01 3.037468e+01 3.435228e+01 3.145562e+01 9.968171e-03 9.420201e-01 2.032143e+00 2.236208e+00 2.294609e+00 1.953566e+00 2.256234e+00 3.133783e+00 2.553803e+00 2.662660e+00 3.164356e+00 3.419804e+00 3.279948e+00 4.480121e-04 2.178202e-01 2.204060e-01 1.811290e-01 5.032597e-01 5.200167e-01 4.198905e-01 4.625193e-01 5.030791e-01 3.629884e-01 3.905527e-01 3.729646e-01 3.587828e-01 1.141216e-04
<GCONST> 8.975217e+01
<MIXTURE> 8 4.928517e-02
<MEAN> 39
 -5.678792e+00 8.642166e+00 -9.721795e-01 -9.812547e+00 2.479073e+00 -1.071588e+01 1.802674e+00 1.326889e+00 3.265759e-01 3.931998e+00 3.452775e+00 6.364788e+00 8.775436e-01 8.775309e-01 -2.818303e+00 2.187749e+00 -1.771104e+00 1.049680e-01 1.949840e+00 -9.200673e-01 7.848467e-01 -1.083987e+00 -1.297927e+00 -1.191025e+00 -1.711746e+00 -1.985024e-02 4.932209e-01 -6.468358e-01 -1.573368e-01 1.181836e+00 -1.226080e+00 7.508609e-01 -1.697860e-01 -5.918484e-01 -1.175977e-01 -5.434799e-01 -1.832980e-01 -1.211439e-01 -5.765254e-03
<VARIANCE> 39
 1.885248e+01 1.304229e+01 2.174314e+01 1.890532e+01 2.641622e+01 2.095611e+01 2.657841e+01 1.806672e+01 2.118582e+01 3.508959e+01 4.255373e+01 8.713656e+01 5.709808e-03 8.772242e-01 2.192876e+00 2.961121e+00 2.041157e+00 1.758852e+00 2.580434e+00 3.190523e+00 2.171537e+00 3.787508e+00 6.047708e+00 5.594932e+00 5.479465e+00 9.674403e-04 1.699522e-01 2.201822e-01 2.592949e-01 4.762914e-01 9.559131e-01 1.865430e-01 4.170244e-01 3.564657e-01 4.260398e-01 3.356679e-01 3.077192e-01 3.815209e-01 1.018217e-04
<GCONST> 8.858358e+01
<STATE> 11
<NUMMIXES> 8
<MIXTURE> 1 2.076187e-02
<MEAN> 39
 2.238918e+00 8.751592e+00 3.211724e-01 -4.520185e+00 -2.474684e+00 -8.195579e+00 2.673849e-01 -1.139493e+00 -9.439409e-01 2.876953e+00 2.550943e-01 5.768398e+00 8.650361e-01 4.528401e-01 -5.947746e-01 2.863497e+00 1.947972e+00 2.632236e+00 2.604651e+00 1.263813e+00 2.080786e+00 -3.120474e-01 3.723042e-01 -1.528386e+00 -2.503377e+00 -8.320490e-02 -9.080176e-01 -3.228379e-01 -6.596863e-02 1.044267e+00 3.097749e-01 1.055145e+00 3.004440e-01 1.250091e-01 2.240710e-01 2.354367e-01 6.733802e-01 3.183870e-01 -3.414809e-02
<VARIANCE> 39
 8.758857e+00 1.631046e+01 7.662529e+00 2.785854e+01 3.312973e+01 2.516726e+01 1.852637e+01 3.670766e+01 3.066790e+01 2.582884e+01 4.989589e+01 6.260077e+01 2.639359e-03 1.850472e+00 9.519417e-01 1.966046e+00 1.287124e+00 3.482241e+00 1.555116e+00 4.825161e+00 4.385895e+00 3.074838e+00 4.487797e+00 3.387873e+00 5.173302e+00 5.034251e-04 9.982964e-02 1.801254e-01 1.928259e-01 4.874983e-01 6.813690e-01 2.725579e-01 3.732419e-01 1.072015e+00 3.646635e-01 4.289832e-01 8.445400e-01 7.226923e-01 1.551639e-04
<GCONST> 8.806302e+01
<MIXTURE> 2 1.641141e-01
<MEAN> 39
 2.823416e+00 9.277719e+00 2.352528e+00 -2.244279e+00 1.448991e-01 -3.746121e+00 -2.562080e+00 1.255957e-01 -6.136522e-01 -1.369508e+00 -7.076735e-01 -1.870514e+00 7.681156e-01 2.571774e-01 -6.952358e-01 1.688883e+00 1.942663e+00 1.195457e+00 1.851548e+00 6.028899e-01 1.895014e-01 7.456411e-03 8.743870e-03 2.925708e-01 1.260192e-01 -5.426129e-02 -5.955991e-01 -2.138613e-01 -2.801149e-01 3.965469e-01 -3.231520e-02 2.410152e-01 4.918627e-02 4.903229e-02 1.339682e-01 1.271207e-01 2.363297e-01 2.716140e-01 -1.709843e-02
<VARIANCE> 39
 1.579624e+01 3.870768e+01 2.732606e+01 4.868706e+01 2.930808e+01 2.388850e+01 3.597112e+01 3.881422e+01 3.117006e+01 2.766162e+01 3.704967e+01 4.018305e+01 5.902477e-03 1.287810e+00 1.641853e+00 1.980344e+00 2.508901e+00 2.228758e+00 2.957743e+00 2.865298e+00 2.458968e+00 2.466723e+00 2.922922e+00 3.053522e+00 2.960681e+00 7.241516e-04 1.862490e-01 2.568049e-01 4.165756e-01 5.279405e-01 4.278456e-01 4.542316e-01 5.754107e-01 6.166077e-01 4.376667e-01 4.486513e-01 5.350286e-01 5.372360e-01 2.079740e-04
<GCONST> 9.256717e+01
<MIXTURE> 3 1.641142e-01
<MEAN> 39
 2.823416e+00 9.277719e+00 2.352527e+00 -2.244277e+00 1.449001e-01 -3.746122e+00 -2.562081e+00 1.255952e-01 -6.136523e-01 -1.369509e+00 -7.076743e-01 -1.870514e+00 7.681156e-01 2.571772e-01 -6.952361e-01 1.688883e+00 1.942663e+00 1.195457e+00 1.851548e+00 6.028899e-01 1.895012e-01 7.456326e-03 8.744020e-03 2.925708e-01 1.260193e-01 -5.426129e-02 -5.955990e-01 -2.138613e-01 -2.801149e-01 3.965467e-01 -3.231534e-02 2.410152e-01 4.918638e-02 4.903232e-02 1.339682e-01 1.271208e-01 2.363298e-01 2.716140e-01 -1.709843e-02
<VARIANCE> 39
 1.579625e+01 3.870769e+01 2.732606e+01 4.868708e+01 2.930810e+01 2.388851e+01 3.597113e+01 3.881423e+01 3.117006e+01 2.766162e+01 3.704969e+01 4.018306e+01 5.902479e-03 1.287810e+00 1.641854e+00 1.980345e+00 2.508900e+00 2.228758e+00 2.957744e+00 2.865299e+00 2.458969e+00 2.466724e+00 2.922922e+00 3.053522e+00 2.960681e+00 7.241520e-04 1.862490e-01 2.568049e-01 4.165757e-01 5.279407e-01 4.278456e-01 4.542321e-01 5.754110e-01 6.166077e-01 4.376668e-01 4.486514e-01 5.350288e-01 5.372362e-01 2.079741e-04
<GCONST> 9.256718e+01
<MIXTURE> 4 1.510852e-01
<MEAN> 39
 1.910542e+00 9.422341e+00 1.756852e+00 -4.066283e+00 -1.045882e+00 -3.687634e+00 -4.362514e+00 -3.502694e-01 -1.346637e-01 -1.194710e+00 -3.666878e-01 -7.513590e-01 7.523087e-01 4.867018e-01 -1.224771e+00 1.045517e+00 8.132645e-01 1.845801e-01 1.309986e+00 2.189174e-01 -3.869632e-01 -4.111332e-01 -4.455763e-01 -5.588400e-01 -1.879110e-01 -3.179207e-02 -2.386539e-01 -1.164637e-01 -2.500335e-01 5.615717e-01 -9.081309e-02 -3.766614e-02 1.401661e-01 -5.253019e-02 1.009845e-02 1.702733e-04 7.028226e-02 8.281073e-02 -5.913791e-03
<VARIANCE> 39
 2.734056e+01 3.955569e+01 3.240992e+01 6.465636e+01 2.537450e+01 2.960631e+01 3.709396e+01 3.510710e+01 3.486983e+01 3.444853e+01 3.459066e+01 3.159834e+01 1.779357e-02 1.201704e+00 2.846443e+00 1.781387e+00 2.050353e+00 3.493817e+00 3.450548e+00 3.614895e+00 2.818453e+00 2.406917e+00 3.052308e+00 3.278075e+00 3.056241e+00 8.931073e-04 3.068548e-01 2.244774e-01 4.475013e-01 7.015628e-01 4.402528e-01 4.794017e-01 4.712343e-01 6.218426e-01 5.760354e-01 5.470538e-01 4.884999e-01 4.919304e-01 1.465862e-04
<GCONST> 9.675166e+01
<MIXTURE> 5 1.641138e-01
<MEAN> 39
 2.823416e+00 9.277719e+00 2.352529e+00 -2.244279e+00 1.448992e-01 -3.746121e+00 -2.562081e+00 1.255947e-01 -6.136524e-01 -1.369509e+00 -7.076733e-01 -1.870514e+00 7.681156e-01 2.571776e-01 -6.952357e-01 1.688883e+00 1.942663e+00 1.195457e+00 1.851548e+00 6.028901e-01 1.895012e-01 7.456259e-03 8.744288e-03 2.925704e-01 1.260191e-01 -5.426129e-02 -5.955992e-01 -2.138613e-01 -2.801149e-01 3.965469e-01 -3.231522e-02 2.410151e-01 4.918626e-02 4.903239e-02 1.339682e-01 1.271207e-01 2.363299e-01 2.716140e-01 -1.709843e-02
<VARIANCE> 39
 1.579624e+01 3.870767e+01 2.732608e+01 4.868707e+01 2.930809e+01 2.388851e+01 3.597113e+01 3.881422e+01 3.117006e+01 2.766162e+01 3.704966e+01 4.018304e+01 5.902479e-03 1.287809e+00 1.641853e+00 1.980345e+00 2.508901e+00 2.228758e+00 2.957742e+00 2.865298e+00 2.458969e+00 2.466724e+00 2.922924e+00 3.053521e+00 2.960679e+00 7.241518e-04 1.862489e-01 2.568049e-01 4.165757e-01 5.279405e-01 4.278455e-01 4.542318e-01 5.754110e-01 6.166077e-01 4.376669e-01 4.486513e-01 5.350286e-01 5.372361e-01 2.079741e-04
<GCONST> 9.256718e+01
<MIXTURE> 6 1.510848e-01
<MEAN> 39
 1.910548e+00 9.422348e+00 1.756853e+00 -4.066273e+00 -1.045883e+00 -3.687633e+00 -4.362517e+00 -3.502701e-01 -1.346657e-01 -1.194709e+00 -3.666894e-01 -7.513618e-01 7.523087e-01 4.867014e-01 -1.224769e+00 1.045516e+00 8.132651e-01 1.845811e-01 1.309984e+00 2.189182e-01 -3.869641e-01 -4.111335e-01 -4.455750e-01 -5.588403e-01 -1.879115e-01 -3.179206e-02 -2.386542e-01 -1.164637e-01 -2.500333e-01 5.615705e-01 -9.081268e-02 -3.766628e-02 1.401659e-01 -5.252989e-02 1.009857e-02 1.699360e-04 7.028250e-02 8.281034e-02 -5.913786e-03
<VARIANCE> 39
